{"learner":{"attributes":{"scikit_learn":"{\"_estimator_type\": \"regressor\"}"},"feature_names":[],"feature_types":[],"gradient_booster":{"model":{"cats":{"enc":[],"feature_segments":[],"sorted_idx":[]},"gbtree_model_param":{"num_parallel_tree":"1","num_trees":"400"},"iteration_indptr":[0,1,2,3,4,5,6,7,8,9,10,11,12,13,14,15,16,17,18,19,20,21,22,23,24,25,26,27,28,29,30,31,32,33,34,35,36,37,38,39,40,41,42,43,44,45,46,47,48,49,50,51,52,53,54,55,56,57,58,59,60,61,62,63,64,65,66,67,68,69,70,71,72,73,74,75,76,77,78,79,80,81,82,83,84,85,86,87,88,89,90,91,92,93,94,95,96,97,98,99,100,101,102,103,104,105,106,107,108,109,110,111,112,113,114,115,116,117,118,119,120,121,122,123,124,125,126,127,128,129,130,131,132,133,134,135,136,137,138,139,140,141,142,143,144,145,146,147,148,149,150,151,152,153,154,155,156,157,158,159,160,161,162,163,164,165,166,167,168,169,170,171,172,173,174,175,176,177,178,179,180,181,182,183,184,185,186,187,188,189,190,191,192,193,194,195,196,197,198,199,200,201,202,203,204,205,206,207,208,209,210,211,212,213,214,215,216,217,218,219,220,221,222,223,224,225,226,227,228,229,230,231,232,233,234,235,236,237,238,239,240,241,242,243,244,245,246,247,248,249,250,251,252,253,254,255,256,257,258,259,260,261,262,263,264,265,266,267,268,269,270,271,272,273,274,275,276,277,278,279,280,281,282,283,284,285,286,287,288,289,290,291,292,293,294,295,296,297,298,299,300,301,302,303,304,305,306,307,308,309,310,311,312,313,314,315,316,317,318,319,320,321,322,323,324,325,326,327,328,329,330,331,332,333,334,335,336,337,338,339,340,341,342,343,344,345,346,347,348,349,350,351,352,353,354,355,356,357,358,359,360,361,362,363,364,365,366,367,368,369,370,371,372,373,374,375,376,377,378,379,380,381,382,383,384,385,386,387,388,389,390,391,392,393,394,395,396,397,398,399,400],"tree_info":[0,0,0,0,0,0,0,0,0,0,0,0,0,0,0,0,0,0,0,0,0,0,0,0,0,0,0,0,0,0,0,0,0,0,0,0,0,0,0,0,0,0,0,0,0,0,0,0,0,0,0,0,0,0,0,0,0,0,0,0,0,0,0,0,0,0,0,0,0,0,0,0,0,0,0,0,0,0,0,0,0,0,0,0,0,0,0,0,0,0,0,0,0,0,0,0,0,0,0,0,0,0,0,0,0,0,0,0,0,0,0,0,0,0,0,0,0,0,0,0,0,0,0,0,0,0,0,0,0,0,0,0,0,0,0,0,0,0,0,0,0,0,0,0,0,0,0,0,0,0,0,0,0,0,0,0,0,0,0,0,0,0,0,0,0,0,0,0,0,0,0,0,0,0,0,0,0,0,0,0,0,0,0,0,0,0,0,0,0,0,0,0,0,0,0,0,0,0,0,0,0,0,0,0,0,0,0,0,0,0,0,0,0,0,0,0,0,0,0,0,0,0,0,0,0,0,0,0,0,0,0,0,0,0,0,0,0,0,0,0,0,0,0,0,0,0,0,0,0,0,0,0,0,0,0,0,0,0,0,0,0,0,0,0,0,0,0,0,0,0,0,0,0,0,0,0,0,0,0,0,0,0,0,0,0,0,0,0,0,0,0,0,0,0,0,0,0,0,0,0,0,0,0,0,0,0,0,0,0,0,0,0,0,0,0,0,0,0,0,0,0,0,0,0,0,0,0,0,0,0,0,0,0,0,0,0,0,0,0,0,0,0,0,0,0,0,0,0,0,0,0,0,0,0,0,0,0,0,0,0,0,0,0,0,0,0,0,0,0,0,0,0,0,0,0,0,0,0,0,0,0,0,0,0,0,0,0,0,0,0,0,0,0,0,0,0,0,0,0,0],"trees":[{"base_weights":[5.4487962E-2,-1.1118923E1,1.3307107E1,-1.8768385E1,-5.07127E0,8.522027E0,2.6588121E1,-3.2303947E1,-1.749479E1,-7.3971553E0,-1.6847035E0,6.494934E0,1.9928566E1,1.967443E1,3.647617E1,-1.5351752E0,-2.7196178E0,-1.0554303E0,-7.7730286E-1,-5.5593723E-1,-2.5950843E-1,-1.6872066E-1,2.0940237E-1,8.3190165E-2,4.484213E-1,8.8879555E-1,1.8815783E0,6.0980225E-1,1.1666166E0,1.9943732E0,1.1798054E0],"categories":[],"categories_nodes":[],"categories_segments":[],"categories_sizes":[],"default_left":[0,0,0,0,0,0,0,0,0,0,0,0,0,0,0,0,0,0,0,0,0,0,0,0,0,0,0,0,0,0,0],"id":0,"left_children":[1,3,5,7,9,11,13,15,17,19,21,23,25,27,29,-1,-1,-1,-1,-1,-1,-1,-1,-1,-1,-1,-1,-1,-1,-1,-1],"loss_changes":[1.3168484E6,2.2311562E5,2.5829775E5,3.6153562E4,2.1223297E4,6.905194E4,7.290919E4,4.7638906E3,1.33974375E4,1.3067469E4,1.0919777E4,3.0361367E4,1.6517984E4,1.7113328E4,1.847925E4,0E0,0E0,0E0,0E0,0E0,0E0,0E0,0E0,0E0,0E0,0E0,0E0,0E0,0E0,0E0,0E0],"parents":[2147483647,0,0,1,1,2,2,3,3,4,4,5,5,6,6,7,7,8,8,9,9,10,10,11,11,12,12,13,13,14,14],"right_children":[2,4,6,8,10,12,14,16,18,20,22,24,26,28,30,-1,-1,-1,-1,-1,-1,-1,-1,-1,-1,-1,-1,-1,-1,-1,-1],"split_conditions":[-3.75E1,-3.155E2,8.684E-1,-7.519E2,-1.383E2,3.058E2,3.058E2,1.102E2,6.25E-2,3.5E-1,5.25E-1,4.53E1,6.047E2,9.68E1,2.84E2,-1.5351752E0,-2.7196178E0,-1.0554303E0,-7.7730286E-1,-5.5593723E-1,-2.5950843E-1,-1.6872066E-1,2.0940237E-1,8.3190165E-2,4.484213E-1,8.8879555E-1,1.8815783E0,6.0980225E-1,1.1666166E0,1.9943732E0,1.1798054E0],"split_indices":[0,0,8,0,0,0,0,7,8,8,8,0,0,0,12,0,0,0,0,0,0,0,0,0,0,0,0,0,0,0,0],"split_type":[0,0,0,0,0,0,0,0,0,0,0,0,0,0,0,0,0,0,0,0,0,0,0,0,0,0,0,0,0,0,0],"sum_hessian":[8.891E3,4.824E3,4.067E3,2.129E3,2.695E3,2.991E3,1.076E3,1.81E2,1.948E3,1.597E3,1.098E3,2.541E3,4.5E2,6.35E2,4.41E2,1.71E2,1E1,6.79E2,1.269E3,5.93E2,1.004E3,8.53E2,2.45E2,8.61E2,1.68E3,4.03E2,4.7E1,2.1E2,4.25E2,3.47E2,9.4E1],"tree_param":{"num_deleted":"0","num_feature":"13","num_nodes":"31","size_leaf_vector":"1"}},{"base_weights":[2.3642603E-2,-8.824909E0,1.4970799E1,-1.709156E1,-2.4745364E0,1.0360465E1,2.6030685E1,-2.6704182E1,-1.5520095E1,-6.2920947E0,2.910251E-1,6.3744802E0,1.2382513E1,2.3423489E1,4.0335785E1,-1.9137535E0,-1.1956371E0,-8.105144E-1,-4.3695447E-1,-9.523498E-1,-2.96282E-1,-1.5272759E-1,8.369739E-2,6.163272E-1,2.5591984E-1,2.1017504E-1,6.582399E-1,1.2828193E0,6.4143825E-1,2.2447505E0,1.1060338E0],"categories":[],"categories_nodes":[],"categories_segments":[],"categories_sizes":[],"default_left":[0,0,0,0,0,0,0,0,0,0,0,0,0,0,0,0,0,0,0,0,0,0,0,0,0,0,0,0,0,0,0],"id":1,"left_children":[1,3,5,7,9,11,13,15,17,19,21,23,25,27,29,-1,-1,-1,-1,-1,-1,-1,-1,-1,-1,-1,-1,-1,-1,-1,-1],"loss_changes":[1.1879654E6,2.961419E5,1.7003619E5,3.6610125E4,3.370198E4,1.893425E4,3.568E4,1.01634375E4,9.728875E3,6.1550938E3,8.573714E3,5.888037E3,9.951625E3,1.9377094E4,1.1463891E4,0E0,0E0,0E0,0E0,0E0,0E0,0E0,0E0,0E0,0E0,0E0,0E0,0E0,0E0,0E0,0E0],"parents":[2147483647,0,0,1,1,2,2,3,3,4,4,5,5,6,6,7,7,8,8,9,9,10,10,11,11,12,12,13,13,14,14],"right_children":[2,4,6,8,10,12,14,16,18,20,22,24,26,28,30,-1,-1,-1,-1,-1,-1,-1,-1,-1,-1,-1,-1,-1,-1,-1,-1],"split_conditions":[2.84E1,-2.74E2,3.002E2,-6.819E2,4.2E-1,7.38E-1,9.8E-1,1.1E-2,2E1,-2.086E2,1.4E1,3.125E-1,6E0,2E1,1.4E1,-1.9137535E0,-1.1956371E0,-8.105144E-1,-4.3695447E-1,-9.523498E-1,-2.96282E-1,-1.5272759E-1,8.369739E-2,6.163272E-1,2.5591984E-1,2.1017504E-1,6.582399E-1,1.2828193E0,6.4143825E-1,2.2447505E0,1.1060338E0],"split_indices":[0,0,0,0,1,1,1,1,9,6,11,3,11,9,9,0,0,0,0,0,0,0,0,0,0,0,0,0,0,0,0],"split_type":[0,0,0,0,0,0,0,0,0,0,0,0,0,0,0,0,0,0,0,0,0,0,0,0,0,0,0,0,0,0,0],"sum_hessian":[8.98E3,5.641E3,3.339E3,2.45E3,3.191E3,2.358E3,9.81E2,3.42E2,2.108E3,1.34E3,1.851E3,7.95E2,1.563E3,8.32E2,1.49E2,6.4E1,2.78E2,1.912E3,1.96E2,3.6E1,1.304E3,5.41E2,1.31E3,1.37E2,6.58E2,1.37E2,1.426E3,6.86E2,1.46E2,1.18E2,3.1E1],"tree_param":{"num_deleted":"0","num_feature":"13","num_nodes":"31","size_leaf_vector":"1"}},{"base_weights":[-4.3466654E-2,-9.074817E0,1.3291054E1,-1.6683212E1,-3.4037142E0,9.371895E0,2.5556393E1,-3.020648E1,-1.5633544E1,-6.063948E0,-5.7885313E-1,5.9382625E0,1.1855832E1,2.2273497E1,4.1398922E1,-1.8619025E0,-1.2492191E0,-8.4939015E-1,-5.634627E-1,-5.1569027E-1,-2.4816656E-1,-2.1073456E-1,4.100446E-2,4.2406818E-1,1.4856513E-1,6.9831014E-1,4.2038313E-1,1.3497776E0,7.827283E-1,2.339696E0,1.0966761E0],"categories":[],"categories_nodes":[],"categories_segments":[],"categories_sizes":[],"default_left":[0,0,0,0,0,0,0,0,0,0,0,0,0,0,0,0,0,0,0,0,0,0,0,0,0,0,0,0,0,0,0],"id":2,"left_children":[1,3,5,7,9,11,13,15,17,19,21,23,25,27,29,-1,-1,-1,-1,-1,-1,-1,-1,-1,-1,-1,-1,-1,-1,-1,-1],"loss_changes":[1.070973E6,2.2871388E5,1.7237919E5,3.1665062E4,2.2833941E4,2.315386E4,4.4274062E4,5.018203E3,1.2238125E4,7.269043E3,7.50579E3,8.614145E3,1.1372828E4,2.2143469E4,1.4515984E4,0E0,0E0,0E0,0E0,0E0,0E0,0E0,0E0,0E0,0E0,0E0,0E0,0E0,0E0,0E0,0E0],"parents":[2147483647,0,0,1,1,2,2,3,3,4,4,5,5,6,6,7,7,8,8,9,9,10,10,11,11,12,12,13,13,14,14],"right_children":[2,4,6,8,10,12,14,16,18,20,22,24,26,28,30,-1,-1,-1,-1,-1,-1,-1,-1,-1,-1,-1,-1,-1,-1,-1,-1],"split_conditions":[-2E-1,-2.962E2,9.03E-1,2E-2,4.24E-1,1.053E2,9.8E-1,1.1E-2,-3.75E2,5E0,1.4E1,5.5E-1,8E0,7.778E-1,1.4E1,-1.8619025E0,-1.2492191E0,-8.4939015E-1,-5.634627E-1,-5.1569027E-1,-2.4816656E-1,-2.1073456E-1,4.100446E-2,4.2406818E-1,1.4856513E-1,6.9831014E-1,4.2038313E-1,1.3497776E0,7.827283E-1,2.339696E0,1.0966761E0],"split_indices":[0,0,1,1,1,0,1,1,0,11,11,3,9,3,9,0,0,0,0,0,0,0,0,0,0,0,0,0,0,0,0],"split_type":[0,0,0,0,0,0,0,0,0,0,0,0,0,0,0,0,0,0,0,0,0,0,0,0,0,0,0,0,0,0,0],"sum_hessian":[8.891E3,5.301E3,3.59E3,2.263E3,3.038E3,2.722E3,8.68E2,1.61E2,2.102E3,1.564E3,1.474E3,1.144E3,1.578E3,7.21E2,1.47E2,6.6E1,9.5E1,1.602E3,5E2,3.2E2,1.244E3,4.09E2,1.065E3,6.15E2,5.29E2,9.77E2,6.01E2,4.19E2,3.02E2,1.14E2,3.3E1],"tree_param":{"num_deleted":"0","num_feature":"13","num_nodes":"31","size_leaf_vector":"1"}},{"base_weights":[-1.3492873E-2,-8.5603485E0,1.2492727E1,-1.5319072E1,-2.9838994E0,7.665578E0,2.3457802E1,-2.0031237E1,-1.2810764E1,-8.682195E0,-1.5763288E0,5.956592E0,1.5680121E1,1.7975542E1,3.0307518E1,-1.4359417E0,-9.191929E-1,-8.489313E-1,-5.605003E-1,-6.21481E-1,-3.3683518E-1,-2.883717E-1,1.01840785E-2,2.0304447E-2,3.8785347E-1,7.4483424E-1,2.1288593E0,4.980588E-1,1.0469426E0,1.6624327E0,8.3081025E-1],"categories":[],"categories_nodes":[],"categories_segments":[],"categories_sizes":[],"default_left":[0,0,0,0,0,0,0,0,0,0,0,0,0,0,0,0,0,0,0,0,0,0,0,0,0,0,0,0,0,0,0],"id":3,"left_children":[1,3,5,7,9,11,13,15,17,19,21,23,25,27,29,-1,-1,-1,-1,-1,-1,-1,-1,-1,-1,-1,-1,-1,-1,-1,-1],"loss_changes":[9.5654844E5,2.0031262E5,1.9211512E5,2.8145812E4,2.3358791E4,3.4477188E4,4.1137812E4,1.1393719E4,1.0290969E4,4.1229297E3,1.7443148E4,2.0803438E4,8.700703E3,1.4492094E4,1.9259406E4,0E0,0E0,0E0,0E0,0E0,0E0,0E0,0E0,0E0,0E0,0E0,0E0,0E0,0E0,0E0,0E0],"parents":[2147483647,0,0,1,1,2,2,3,3,4,4,5,5,6,6,7,7,8,8,9,9,10,10,11,11,12,12,13,13,14,14],"right_children":[2,4,6,8,10,12,14,16,18,20,22,24,26,28,30,-1,-1,-1,-1,-1,-1,-1,-1,-1,-1,-1,-1,-1,-1,-1,-1],"split_conditions":[-2E-1,2.36E-1,8.333E-1,-5.445E2,1.923E-1,8.99E-1,3.002E2,1.7E-2,5.88E-2,-1.97E2,1.2E1,5E-1,9.92E-1,7.29E-1,3.35E2,-1.4359417E0,-9.191929E-1,-8.489313E-1,-5.605003E-1,-6.21481E-1,-3.3683518E-1,-2.883717E-1,1.01840785E-2,2.0304447E-2,3.8785347E-1,7.4483424E-1,2.1288593E0,4.980588E-1,1.0469426E0,1.6624327E0,8.3081025E-1],"split_indices":[0,1,8,0,8,1,0,1,8,0,11,8,1,1,12,0,0,0,0,0,0,0,0,0,0,0,0,0,0,0,0],"split_type":[0,0,0,0,0,0,0,0,0,0,0,0,0,0,0,0,0,0,0,0,0,0,0,0,0,0,0,0,0,0,0],"sum_hessian":[8.947E3,5.315E3,3.632E3,2.402E3,2.913E3,2.523E3,1.109E3,8.32E2,1.57E3,5.76E2,2.337E3,2.081E3,4.42E2,6.18E2,4.91E2,1.3E2,7.02E2,4.33E2,1.137E3,1.95E2,3.81E2,6.96E2,1.641E3,5.1E2,1.571E3,4.31E2,1.1E1,1.68E2,4.5E2,4.03E2,8.8E1],"tree_param":{"num_deleted":"0","num_feature":"13","num_nodes":"31","size_leaf_vector":"1"}},{"base_weights":[-1.9274683E-1,-8.329617E0,1.1820598E1,-1.5859819E1,-3.6571152E0,7.44049E0,2.3023205E1,-2.2782804E1,-1.4414114E1,-6.4765053E0,-1.3230397E-1,5.0208683E0,1.2043534E1,1.7329256E1,3.0445574E1,-9.789184E-1,-1.4798162E0,-7.467165E-1,-1.7457643E-1,7.435259E-1,-3.426939E-1,-3.6376858E-1,6.115626E-2,-1.0385932E-3,3.4124613E-1,-1.0013522E0,6.214926E-1,4.946251E-1,1.0501254E0,1.6676253E0,9.252452E-1],"categories":[],"categories_nodes":[],"categories_segments":[],"categories_sizes":[],"default_left":[0,0,0,0,0,0,0,0,0,0,0,0,0,0,0,0,0,0,0,0,0,0,0,0,0,0,0,0,0,0,0],"id":4,"left_children":[1,3,5,7,9,11,13,15,17,19,21,23,25,27,29,-1,-1,-1,-1,-1,-1,-1,-1,-1,-1,-1,-1,-1,-1,-1,-1],"loss_changes":[8.7193975E5,1.8705519E5,1.7657388E5,2.0049188E4,3.2625E4,2.879711E4,4.2242188E4,7.0622656E3,9.5335625E3,1.4795648E4,1.4144506E4,1.54623125E4,1.1300328E4,1.5499547E4,1.4586125E4,0E0,0E0,0E0,0E0,0E0,0E0,0E0,0E0,0E0,0E0,0E0,0E0,0E0,0E0,0E0,0E0],"parents":[2147483647,0,0,1,1,2,2,3,3,4,4,5,5,6,6,7,7,8,8,9,9,10,10,11,11,12,12,13,13,14,14],"right_children":[2,4,6,8,10,12,14,16,18,20,22,24,26,28,30,-1,-1,-1,-1,-1,-1,-1,-1,-1,-1,-1,-1,-1,-1,-1,-1],"split_conditions":[-2E-1,-3.317E2,8.571E-1,-6.819E2,4.24E-1,8.38E-1,9.03E-1,1.6E1,5.357E-1,2E0,1.818E-1,5E-1,5E-2,3.2E1,3.01E2,-9.789184E-1,-1.4798162E0,-7.467165E-1,-1.7457643E-1,7.435259E-1,-3.426939E-1,-3.6376858E-1,6.115626E-2,-1.0385932E-3,3.4124613E-1,-1.0013522E0,6.214926E-1,4.946251E-1,1.0501254E0,1.6676253E0,9.252452E-1],"split_indices":[0,0,8,0,1,1,1,11,8,12,8,8,3,11,12,0,0,0,0,0,0,0,0,0,0,0,0,0,0,0,0],"split_type":[0,0,0,0,0,0,0,0,0,0,0,0,0,0,0,0,0,0,0,0,0,0,0,0,0,0,0,0,0,0,0],"sum_hessian":[8.918E3,5.317E3,3.601E3,2.035E3,3.282E3,2.59E3,1.011E3,3.49E2,1.686E3,1.823E3,1.459E3,1.699E3,8.91E2,5.74E2,4.37E2,2.4E2,1.09E2,1.609E3,7.7E1,3.1E1,1.792E3,2.32E2,1.227E3,4.48E2,1.251E3,1E1,8.81E2,1.91E2,3.83E2,3.5E2,8.7E1],"tree_param":{"num_deleted":"0","num_feature":"13","num_nodes":"31","size_leaf_vector":"1"}},{"base_weights":[-1.1681878E-1,-8.840657E0,1.0324862E1,-1.415051E1,-3.7068768E0,7.0951138E0,2.1144012E1,-1.8688745E1,-1.18640175E1,-5.6798086E0,-9.999715E-1,2.3913145E0,9.232493E0,1.9156645E1,3.5466446E1,-1.5559914E0,-8.765861E-1,3.438583E-1,-6.107398E-1,8.982369E-1,-2.9710206E-1,-1.9946313E-1,1.3343267E-2,-6.2155304E-3,2.2490445E-1,5.750889E-1,2.5354725E-1,1.1844954E0,6.3586086E-1,2.036098E0,9.4196886E-1],"categories":[],"categories_nodes":[],"categories_segments":[],"categories_sizes":[],"default_left":[0,0,0,0,0,0,0,0,0,0,0,0,0,0,0,0,0,0,0,0,0,0,0,0,0,0,0,0,0,0,0],"id":5,"left_children":[1,3,5,7,9,11,13,15,17,19,21,23,25,27,29,-1,-1,-1,-1,-1,-1,-1,-1,-1,-1,-1,-1,-1,-1,-1,-1],"loss_changes":[8.1608925E5,1.3300175E5,1.423481E5,2.4671875E4,1.3254883E4,3.1566969E4,2.5991312E4,1.0989656E4,1.0589266E4,9.010488E3,3.9697817E3,5.210317E3,2.034014E4,2.3781812E4,9.1071875E3,0E0,0E0,0E0,0E0,0E0,0E0,0E0,0E0,0E0,0E0,0E0,0E0,0E0,0E0,0E0,0E0],"parents":[2147483647,0,0,1,1,2,2,3,3,4,4,5,5,6,6,7,7,8,8,9,9,10,10,11,11,12,12,13,13,14,14],"right_children":[2,4,6,8,10,12,14,16,18,20,22,24,26,28,30,-1,-1,-1,-1,-1,-1,-1,-1,-1,-1,-1,-1,-1,-1,-1,-1],"split_conditions":[-3.75E1,-2.791E2,3.002E2,-5.52E2,4.24E-1,4.53E1,9.84E-1,1.1E-2,5E0,1E0,1.4E1,5E-1,1.35E2,1.58E2,3.05E2,-1.5559914E0,-8.765861E-1,3.438583E-1,-6.107398E-1,8.982369E-1,-2.9710206E-1,-1.9946313E-1,1.3343267E-2,-6.2155304E-3,2.2490445E-1,5.750889E-1,2.5354725E-1,1.1844954E0,6.3586086E-1,2.036098E0,9.4196886E-1],"split_indices":[0,0,0,0,1,0,1,1,12,12,11,4,12,12,12,0,0,0,0,0,0,0,0,0,0,0,0,0,0,0,0],"split_type":[0,0,0,0,0,0,0,0,0,0,0,0,0,0,0,0,0,0,0,0,0,0,0,0,0,0,0,0,0,0,0],"sum_hessian":[8.957E3,4.88E3,4.077E3,2.398E3,2.482E3,3.141E3,9.36E2,8.01E2,1.597E3,1.435E3,1.047E3,9.82E2,2.159E3,8.24E2,1.12E2,6.6E1,7.35E2,2.9E1,1.568E3,1.5E1,1.42E3,3.11E2,7.36E2,4.48E2,5.34E2,1.396E3,7.63E2,4.82E2,3.42E2,8.4E1,2.8E1],"tree_param":{"num_deleted":"0","num_feature":"13","num_nodes":"31","size_leaf_vector":"1"}},{"base_weights":[-1.0888956E-3,-6.7447476E0,1.1567685E1,-1.3048287E1,-2.0632627E0,7.6457553E0,2.2591227E1,-1.7241707E1,-1.0648215E1,-5.24116E0,-2.3902711E-1,6.3404512E0,1.5762571E1,1.9409428E1,3.5504814E1,-1.4823774E0,-8.0693895E-1,-7.317695E-1,-4.53236E-1,-1.303939E0,-2.5292906E-1,-1.6401048E-1,7.465021E-2,4.1592818E-1,1.6528682E-1,6.84896E-1,1.3911047E0,5.02071E-1,1.0667042E0,2.4580383E0,1.5719419E0],"categories":[],"categories_nodes":[],"categories_segments":[],"categories_sizes":[],"default_left":[0,0,0,0,0,0,0,0,0,0,0,0,0,0,0,0,0,0,0,0,0,0,0,0,0,0,0,0,0,0,0],"id":6,"left_children":[1,3,5,7,9,11,13,15,17,19,21,23,25,27,29,-1,-1,-1,-1,-1,-1,-1,-1,-1,-1,-1,-1,-1,-1,-1,-1],"loss_changes":[6.9551144E5,1.6617298E5,1.4176306E5,2.3971219E4,1.8741203E4,2.5571516E4,3.4688062E4,1.1452891E4,9.5209375E3,4.3535938E3,1.0829452E4,1.2512781E4,7.959961E3,1.22806875E4,7.838125E3,0E0,0E0,0E0,0E0,0E0,0E0,0E0,0E0,0E0,0E0,0E0,0E0,0E0,0E0,0E0,0E0],"parents":[2147483647,0,0,1,1,2,2,3,3,4,4,5,5,6,6,7,7,8,8,9,9,10,10,11,11,12,12,13,13,14,14],"right_children":[2,4,6,8,10,12,14,16,18,20,22,24,26,28,30,-1,-1,-1,-1,-1,-1,-1,-1,-1,-1,-1,-1,-1,-1,-1,-1],"split_conditions":[6.45E-1,2.41E-1,9.375E-1,6.5E-2,4.25E-1,9.29E-1,9.6E-1,1.1E-2,5E-2,-2.624E2,4.05E-1,1.35E2,9.8E-1,7.38E-1,-9.33E1,-1.4823774E0,-8.0693895E-1,-7.317695E-1,-4.53236E-1,-1.303939E0,-2.5292906E-1,-1.6401048E-1,7.465021E-2,4.1592818E-1,1.6528682E-1,6.84896E-1,1.3911047E0,5.02071E-1,1.0667042E0,2.4580383E0,1.5719419E0],"split_indices":[1,1,8,1,8,1,1,1,8,6,1,12,1,1,7,0,0,0,0,0,0,0,0,0,0,0,0,0,0,0,0],"split_type":[0,0,0,0,0,0,0,0,0,0,0,0,0,0,0,0,0,0,0,0,0,0,0,0,0,0,0,0,0,0,0],"sum_hessian":[8.913E3,5.631E3,3.282E3,2.399E3,3.232E3,2.422E3,8.6E2,8.71E2,1.528E3,1.178E3,2.054E3,2.088E3,3.34E2,6.92E2,1.68E2,6.9E1,8.02E2,4.32E2,1.096E3,9E0,1.169E3,7.45E2,1.309E3,1.263E3,8.25E2,2.87E2,4.7E1,1.19E2,5.73E2,3.6E1,1.32E2],"tree_param":{"num_deleted":"0","num_feature":"13","num_nodes":"31","size_leaf_vector":"1"}},{"base_weights":[-1.8113847E-1,-7.715268E0,9.345739E0,-1.4248996E1,-3.9698794E0,5.7684608E0,1.9159985E1,-2.321289E1,-1.330537E1,-5.091515E0,2.1911967E0,3.6633697E0,1.0581401E1,1.3494363E1,2.4941074E1,-8.786256E-1,-1.4020172E0,8.424007E-1,-6.7683506E-1,3.098561E-1,-2.799234E-1,2.9071608E-1,-3.9125692E-2,2.8913397E-1,4.3977603E-2,4.8408046E-1,1.4162657E0,3.41608E-1,8.6785746E-1,1.083131E0,1.529272E0],"categories":[],"categories_nodes":[],"categories_segments":[],"categories_sizes":[],"default_left":[0,0,0,0,0,0,0,0,0,0,0,0,0,0,0,0,0,0,0,0,0,0,0,0,0,0,0,0,0,0,0],"id":7,"left_children":[1,3,5,7,9,11,13,15,17,19,21,23,25,27,29,-1,-1,-1,-1,-1,-1,-1,-1,-1,-1,-1,-1,-1,-1,-1,-1],"loss_changes":[6.4218675E5,1.2220231E5,1.3860231E5,1.5085719E4,2.1965762E4,2.9312695E4,3.4218344E4,4.190586E3,1.17305E4,1.5417609E4,5.283871E3,1.1894752E4,1.379168E4,1.3649453E4,8.978469E3,0E0,0E0,0E0,0E0,0E0,0E0,0E0,0E0,0E0,0E0,0E0,0E0,0E0,0E0,0E0,0E0],"parents":[2147483647,0,0,1,1,2,2,3,3,4,4,5,5,6,6,7,7,8,8,9,9,10,10,11,11,12,12,13,13,14,14],"right_children":[2,4,6,8,10,12,14,16,18,20,22,24,26,28,30,-1,-1,-1,-1,-1,-1,-1,-1,-1,-1,-1,-1,-1,-1,-1,-1],"split_conditions":[5.66E-1,-3.699E2,8.571E-1,2E-2,5.357E-1,8.38E-1,8.77E-1,9E0,4E0,3E0,9.5E1,9.7E1,9.8E-1,3.5E1,9.6E-1,-8.786256E-1,-1.4020172E0,8.424007E-1,-6.7683506E-1,3.098561E-1,-2.799234E-1,2.9071608E-1,-3.9125692E-2,2.8913397E-1,4.3977603E-2,4.8408046E-1,1.4162657E0,3.41608E-1,8.6785746E-1,1.083131E0,1.529272E0],"split_indices":[1,0,8,1,8,1,1,11,12,12,12,12,1,11,1,0,0,0,0,0,0,0,0,0,0,0,0,0,0,0,0],"split_type":[0,0,0,0,0,0,0,0,0,0,0,0,0,0,0,0,0,0,0,0,0,0,0,0,0,0,0,0,0,0,0],"sum_hessian":[8.945E3,4.995E3,3.95E3,1.819E3,3.176E3,2.896E3,1.054E3,1.71E2,1.648E3,2.687E3,4.89E2,2.016E3,8.8E2,5.34E2,5.2E2,8.1E1,9E1,1.2E1,1.636E3,1.15E2,2.572E3,2.2E2,2.69E2,1.144E3,8.72E2,8.39E2,4.1E1,1.97E2,3.37E2,3.32E2,1.88E2],"tree_param":{"num_deleted":"0","num_feature":"13","num_nodes":"31","size_leaf_vector":"1"}},{"base_weights":[1.4976148E-1,-8.518408E0,7.68719E0,-1.3239869E1,-5.09953E0,4.4763517E0,1.7676296E1,-3.3300278E1,-1.2847292E1,-4.779906E0,-2.4506857E1,1.5610703E0,7.2945065E0,1.5572974E1,2.875678E1,-2.4396334E0,-6.895034E-1,-6.061197E-1,-9.6091956E-1,-3.435259E-1,-1.4468567E-1,-2.2635317E0,-9.679894E-1,1.5033005E-1,-2.2311477E-2,-6.1828535E-2,3.8256335E-1,8.72292E-1,4.611256E-1,1.6192026E0,6.42217E-1],"categories":[],"categories_nodes":[],"categories_segments":[],"categories_sizes":[],"default_left":[0,0,0,0,0,0,0,0,0,0,0,0,0,0,0,0,0,0,0,0,0,0,0,0,0,0,0,0,0,0,0],"id":8,"left_children":[1,3,5,7,9,11,13,15,17,19,21,23,25,27,29,-1,-1,-1,-1,-1,-1,-1,-1,-1,-1,-1,-1,-1,-1,-1,-1],"loss_changes":[5.8619206E5,6.729344E4,1.5384116E5,1.3369656E4,1.4906668E4,2.9836305E4,2.6750062E4,9.301719E3,7.7106875E3,9.3809375E3,3.2916035E3,5.186526E3,5.6309062E3,1.1530469E4,1.0262031E4,0E0,0E0,0E0,0E0,0E0,0E0,0E0,0E0,0E0,0E0,0E0,0E0,0E0,0E0,0E0,0E0],"parents":[2147483647,0,0,1,1,2,2,3,3,4,4,5,5,6,6,7,7,8,8,9,9,10,10,11,11,12,12,13,13,14,14],"right_children":[2,4,6,8,10,12,14,16,18,20,22,24,26,28,30,-1,-1,-1,-1,-1,-1,-1,-1,-1,-1,-1,-1,-1,-1,-1,-1],"split_conditions":[4.68E-1,-3.75E2,2.657E2,-9.086E2,2.111E2,6.78E-1,9.76E-1,-2.48E1,9.75E1,-2.271E2,4.167E-1,6E-1,2E0,1.7E1,1.7E1,-2.4396334E0,-6.895034E-1,-6.061197E-1,-9.6091956E-1,-3.435259E-1,-1.4468567E-1,-2.2635317E0,-9.679894E-1,1.5033005E-1,-2.2311477E-2,-6.1828535E-2,3.8256335E-1,8.72292E-1,4.611256E-1,1.6192026E0,6.42217E-1],"split_indices":[1,0,0,0,7,1,1,6,7,0,5,2,11,9,9,0,0,0,0,0,0,0,0,0,0,0,0,0,0,0,0],"split_type":[0,0,0,0,0,0,0,0,0,0,0,0,0,0,0,0,0,0,0,0,0,0,0,0,0,0,0,0,0,0,0],"sum_hessian":[8.97E3,4.172E3,4.798E3,1.751E3,2.421E3,3.632E3,1.166E3,3.2E1,1.719E3,2.383E3,3.8E1,1.786E3,1.846E3,9.82E2,1.84E2,1.7E1,1.5E1,1.546E3,1.73E2,1.129E3,1.254E3,6E0,3.2E1,1.038E3,7.48E2,7.4E1,1.772E3,7.57E2,2.25E2,1.49E2,3.5E1],"tree_param":{"num_deleted":"0","num_feature":"13","num_nodes":"31","size_leaf_vector":"1"}},{"base_weights":[1.7545542E-1,-6.2008452E0,9.613253E0,-1.1398435E1,-1.9363145E0,6.2666383E0,1.9148874E1,-1.7108915E1,-9.959679E0,-3.1308928E0,3.669206E0,4.2547436E0,1.1190667E1,1.6054441E1,3.1277933E1,-8.1019086E-1,-1.5344208E0,-7.00195E-1,-4.0426522E-1,5.171947E-1,-1.6897634E-1,-1.9401848E-2,2.9533732E-1,4.674549E-3,2.807768E-1,5.2702E-1,1.9744221E0,3.7189892E-1,9.167345E-1,1.9656118E0,1.2444104E0],"categories":[],"categories_nodes":[],"categories_segments":[],"categories_sizes":[],"default_left":[0,0,0,0,0,0,0,0,0,0,0,0,0,0,0,0,0,0,0,0,0,0,0,0,0,0,0,0,0,0,0],"id":9,"left_children":[1,3,5,7,9,11,13,15,17,19,21,23,25,27,29,-1,-1,-1,-1,-1,-1,-1,-1,-1,-1,-1,-1,-1,-1,-1,-1],"loss_changes":[5.374512E5,1.18118875E5,1.1479528E5,1.9564406E4,1.9624754E4,2.637336E4,3.459078E4,5.4268906E3,1.4448703E4,8.1259062E3,4.6775884E3,1.0730102E4,1.3807852E4,1.45404375E4,8.724297E3,0E0,0E0,0E0,0E0,0E0,0E0,0E0,0E0,0E0,0E0,0E0,0E0,0E0,0E0,0E0,0E0],"parents":[2147483647,0,0,1,1,2,2,3,3,4,4,5,5,6,6,7,7,8,8,9,9,10,10,11,11,12,12,13,13,14,14],"right_children":[2,4,6,8,10,12,14,16,18,20,22,24,26,28,30,-1,-1,-1,-1,-1,-1,-1,-1,-1,-1,-1,-1,-1,-1,-1,-1],"split_conditions":[-2E-1,2.36E-1,9.231E-1,3.7E-2,5.714E-1,2.432E2,9.6E-1,9.91E1,9.38E-2,1E0,4.7E1,5E-1,6.939E2,7.29E-1,7.5E-1,-8.1019086E-1,-1.5344208E0,-7.00195E-1,-4.0426522E-1,5.171947E-1,-1.6897634E-1,-1.9401848E-2,2.9533732E-1,4.674549E-3,2.807768E-1,5.2702E-1,1.9744221E0,3.7189892E-1,9.167345E-1,1.9656118E0,1.2444104E0],"split_indices":[0,1,8,1,8,0,1,7,8,12,11,8,0,1,2,0,0,0,0,0,0,0,0,0,0,0,0,0,0,0,0],"split_type":[0,0,0,0,0,0,0,0,0,0,0,0,0,0,0,0,0,0,0,0,0,0,0,0,0,0,0,0,0,0,0],"sum_hessian":[8.929E3,5.329E3,3.6E3,2.401E3,2.928E3,2.666E3,9.34E2,4.81E2,1.92E3,2.414E3,5.14E2,1.894E3,7.72E2,7.46E2,1.88E2,4.53E2,2.8E1,6.06E2,1.314E3,4.3E1,2.371E3,1.83E2,3.31E2,4.67E2,1.427E3,7.56E2,1.6E1,1.57E2,5.89E2,8.1E1,1.07E2],"tree_param":{"num_deleted":"0","num_feature":"13","num_nodes":"31","size_leaf_vector":"1"}},{"base_weights":[-1.109601E-1,-6.833045E0,7.9287205E0,-1.2494968E1,-3.701853E0,4.578126E0,1.7099262E1,-1.9514038E1,-1.1414341E1,-9.136911E0,-2.4385693E0,2.5802245E0,9.271524E0,1.2622101E1,2.3154924E1,-9.0321505E-1,-2.3301501E0,6.205444E-1,-5.8480066E-1,-4.2396107E-1,-1.2133363E0,-1.6956013E-1,9.236871E-2,-8.067152E-2,1.8921058E-1,-1.234735E0,4.8239118E-1,4.038864E-1,7.532337E-1,2.0340729E0,1.0435E0],"categories":[],"categories_nodes":[],"categories_segments":[],"categories_sizes":[],"default_left":[0,0,0,0,0,0,0,0,0,0,0,0,0,0,0,0,0,0,0,0,0,0,0,0,0,0,0,0,0,0,0],"id":10,"left_children":[1,3,5,7,9,11,13,15,17,19,21,23,25,27,29,-1,-1,-1,-1,-1,-1,-1,-1,-1,-1,-1,-1,-1,-1,-1,-1],"loss_changes":[4.8136484E5,8.595505E4,1.245495E5,1.28765625E4,2.1434035E4,2.784436E4,2.9124438E4,8.151414E3,1.0204844E4,5.655215E3,1.0364666E4,1.0538541E4,1.1575406E4,6.826883E3,1.7572516E4,0E0,0E0,0E0,0E0,0E0,0E0,0E0,0E0,0E0,0E0,0E0,0E0,0E0,0E0,0E0,0E0],"parents":[2147483647,0,0,1,1,2,2,3,3,4,4,5,5,6,6,7,7,8,8,9,9,10,10,11,11,12,12,13,13,14,14],"right_children":[2,4,6,8,10,12,14,16,18,20,22,24,26,28,30,-1,-1,-1,-1,-1,-1,-1,-1,-1,-1,-1,-1,-1,-1,-1,-1],"split_conditions":[5.54E-1,1.51E-1,8.571E-1,2.4E-2,9.09E-2,8.38E-1,8.97E-1,1.102E2,7E0,1.993E2,5.5E-1,3.947E-1,5E-2,7.29E-1,5E-1,-9.0321505E-1,-2.3301501E0,6.205444E-1,-5.8480066E-1,-4.2396107E-1,-1.2133363E0,-1.6956013E-1,9.236871E-2,-8.067152E-2,1.8921058E-1,-1.234735E0,4.8239118E-1,4.038864E-1,7.532337E-1,2.0340729E0,1.0435E0],"split_indices":[1,1,8,1,8,1,1,7,12,7,8,8,3,1,3,0,0,0,0,0,0,0,0,0,0,0,0,0,0,0,0],"split_type":[0,0,0,0,0,0,0,0,0,0,0,0,0,0,0,0,0,0,0,0,0,0,0,0,0,0,0,0,0,0,0],"sum_hessian":[8.905E3,4.85E3,4.055E3,1.726E3,3.124E3,2.971E3,1.084E3,2.28E2,1.498E3,5.88E2,2.536E3,2.085E3,8.86E2,6.25E2,4.59E2,2.18E2,1E1,1.7E1,1.481E3,5.65E2,2.3E1,2.075E3,4.61E2,4.65E2,1.62E3,9E0,8.77E2,2.2E2,4.05E2,5.1E1,4.08E2],"tree_param":{"num_deleted":"0","num_feature":"13","num_nodes":"31","size_leaf_vector":"1"}},{"base_weights":[-1.4611818E-1,-8.256833E0,5.888346E0,-1.1672306E1,-5.208967E0,2.2520516E0,1.1982066E1,-2.4489481E1,-1.1134876E1,8.814838E0,-5.4628534E0,-8.755769E-1,3.4840746E0,1.0203982E1,2.057848E1,-1.6662968E-2,-1.356318E0,-7.624789E-1,-5.091851E-1,-6.6474277E-1,9.537449E-1,-2.5653824E-1,-7.7945775E-1,-1.5402374E0,-3.372028E-2,4.2815146E-1,8.851329E-2,-1.4752761E0,5.2763456E-1,1.212461E0,4.6107823E-1],"categories":[],"categories_nodes":[],"categories_segments":[],"categories_sizes":[],"default_left":[0,0,0,0,0,0,0,0,0,0,0,0,0,0,0,0,0,0,0,0,0,0,0,0,0,0,0,0,0,0,0],"id":11,"left_children":[1,3,5,7,9,11,13,15,17,19,21,23,25,27,29,-1,-1,-1,-1,-1,-1,-1,-1,-1,-1,-1,-1,-1,-1,-1,-1],"loss_changes":[4.34474E5,3.93615E4,1.1276011E5,1.2022969E4,7.1797383E3,1.2291258E4,2.8862344E4,4.5134453E3,6.5568594E3,8.420082E3,6.5380703E3,5.410067E3,1.9900408E4,2.2162E4,1.3325078E4,0E0,0E0,0E0,0E0,0E0,0E0,0E0,0E0,0E0,0E0,0E0,0E0,0E0,0E0,0E0,0E0],"parents":[2147483647,0,0,1,1,2,2,3,3,4,4,5,5,6,6,7,7,8,8,9,9,10,10,11,11,12,12,13,13,14,14],"right_children":[2,4,6,8,10,12,14,16,18,20,22,24,26,28,30,-1,-1,-1,-1,-1,-1,-1,-1,-1,-1,-1,-1,-1,-1,-1,-1],"split_conditions":[4.24E-1,1.55E-1,7.98E-1,1.1E-2,2E0,1.6E1,9.6E-1,2E0,6.111E-1,1.25E-1,1.913E2,-2.624E2,3.9E1,5E-2,3.19E2,-1.6662968E-2,-1.356318E0,-7.624789E-1,-5.091851E-1,-6.6474277E-1,9.537449E-1,-2.5653824E-1,-7.7945775E-1,-1.5402374E0,-3.372028E-2,4.2815146E-1,8.851329E-2,-1.4752761E0,5.2763456E-1,1.212461E0,4.6107823E-1],"split_indices":[1,1,1,1,12,11,1,11,5,3,7,6,12,3,12,0,0,0,0,0,0,0,0,0,0,0,0,0,0,0,0],"split_type":[0,0,0,0,0,0,0,0,0,0,0,0,0,0,0,0,0,0,0,0,0,0,0,0,0,0,0,0,0,0,0],"sum_hessian":[8.875E3,3.786E3,5.089E3,1.784E3,2.002E3,3.188E3,1.901E3,7E1,1.714E3,3.5E1,1.967E3,9.01E2,2.287E3,1.577E3,3.24E2,7E0,6.3E1,3.19E2,1.395E3,1.1E1,2.4E1,1.906E3,6.1E1,5E0,8.96E2,5.76E2,1.711E3,1.3E1,1.564E3,2.44E2,8E1],"tree_param":{"num_deleted":"0","num_feature":"13","num_nodes":"31","size_leaf_vector":"1"}},{"base_weights":[-3.3941723E-2,-6.859254E0,6.1838737E0,-1.0481125E1,-3.654723E0,3.1863422E0,1.5217404E1,8.021955E0,-1.0804704E1,-7.105039E0,-2.0822396E0,2.2610645E0,9.380957E0,6.1678376E0,1.7766382E1,1.0050861E0,-4.7122574E-1,-9.27251E-1,-5.03854E-1,-3.306101E-1,-9.654423E-1,-3.507187E-1,-8.275262E-3,-1.1955106E-1,1.6177009E-1,4.316437E-1,1.7133394E0,-5.8700223E-2,5.9039885E-1,5.0969386E-1,9.696395E-1],"categories":[],"categories_nodes":[],"categories_segments":[],"categories_sizes":[],"default_left":[0,0,0,0,0,0,0,0,0,0,0,0,0,0,0,0,0,0,0,0,0,0,0,0,0,0,0,0,0,0,0],"id":12,"left_children":[1,3,5,7,9,11,13,15,17,19,21,23,25,27,29,-1,-1,-1,-1,-1,-1,-1,-1,-1,-1,-1,-1,-1,-1,-1,-1],"loss_changes":[3.7995212E5,4.9497812E4,1.2681331E5,1.2079047E4,1.2279533E4,2.014877E4,2.6809812E4,7.565674E3,1.0902594E4,4.1365977E3,1.4727535E4,1.3891401E4,8.211992E3,1.0697388E4,1.1009844E4,0E0,0E0,0E0,0E0,0E0,0E0,0E0,0E0,0E0,0E0,0E0,0E0,0E0,0E0,0E0,0E0],"parents":[2147483647,0,0,1,1,2,2,3,3,4,4,5,5,6,6,7,7,8,8,9,9,10,10,11,11,12,12,13,13,14,14],"right_children":[2,4,6,8,10,12,14,16,18,20,22,24,26,28,30,-1,-1,-1,-1,-1,-1,-1,-1,-1,-1,-1,-1,-1,-1,-1,-1],"split_conditions":[4.85E-1,1.86E-1,8.462E-1,8E0,2.895E-1,8.99E-1,7.29E-1,7E-1,2E-2,1.845E2,7E0,3.214E-1,9.92E-1,3.8E1,9.474E-1,1.0050861E0,-4.7122574E-1,-9.27251E-1,-5.03854E-1,-3.306101E-1,-9.654423E-1,-3.507187E-1,-8.275262E-3,-1.1955106E-1,1.6177009E-1,4.316437E-1,1.7133394E0,-5.8700223E-2,5.9039885E-1,5.0969386E-1,9.696395E-1],"split_indices":[1,1,8,12,8,1,1,4,1,7,11,8,1,11,8,0,0,0,0,0,0,0,0,0,0,0,0,0,0,0,0],"split_type":[0,0,0,0,0,0,0,0,0,0,0,0,0,0,0,0,0,0,0,0,0,0,0,0,0,0,0,0,0,0,0],"sum_hessian":[8.951E3,4.267E3,4.684E3,2.002E3,2.265E3,3.518E3,1.166E3,3.4E1,1.968E3,7.08E2,1.557E3,3.062E3,4.56E2,2.57E2,9.09E2,2E1,1.4E1,1.67E2,1.801E3,6.82E2,2.6E1,4.35E2,1.122E3,5.3E2,2.532E3,4.44E2,1.2E1,1.12E2,1.45E2,1.62E2,7.47E2],"tree_param":{"num_deleted":"0","num_feature":"13","num_nodes":"31","size_leaf_vector":"1"}},{"base_weights":[1.87698E-2,-7.432765E0,5.551825E0,-1.0863615E1,-4.6269217E0,3.3114693E0,1.4395438E1,1.4946387E1,-1.1131294E1,-9.583717E0,-3.3938198E0,3.8835257E-1,5.730472E0,4.6080976E0,1.870417E1,1.0774038E0,-1.262237E0,-8.90703E-1,-5.240223E-1,-3.9409265E-1,-1.156914E0,5.669918E-1,-1.8754451E-1,-1.5075425E0,2.519106E-2,2.3595205E-1,5.560476E-1,7.878405E-2,5.461301E-1,7.950081E-1,1.3632417E0],"categories":[],"categories_nodes":[],"categories_segments":[],"categories_sizes":[],"default_left":[0,0,0,0,0,0,0,0,0,0,0,0,0,0,0,0,0,0,0,0,0,0,0,0,0,0,0,0,0,0,0],"id":13,"left_children":[1,3,5,7,9,11,13,15,17,19,21,23,25,27,29,-1,-1,-1,-1,-1,-1,-1,-1,-1,-1,-1,-1,-1,-1,-1,-1],"loss_changes":[3.6834662E5,3.6597547E4,1.0153275E5,1.1994234E4,1.2778715E4,2.8932422E4,4.3603E4,5.3199014E3,7.1856406E3,9.436996E3,8.880934E3,6.5529883E3,1.2154773E4,6.0719185E3,1.6825484E4,0E0,0E0,0E0,0E0,0E0,0E0,0E0,0E0,0E0,0E0,0E0,0E0,0E0,0E0,0E0,0E0],"parents":[2147483647,0,0,1,1,2,2,3,3,4,4,5,5,6,6,7,7,8,8,9,9,10,10,11,11,12,12,13,13,14,14],"right_children":[2,4,6,8,10,12,14,16,18,20,22,24,26,28,30,-1,-1,-1,-1,-1,-1,-1,-1,-1,-1,-1,-1,-1,-1,-1,-1],"split_conditions":[-1.349E2,-3.862E2,9.286E-1,7E0,2.78E-2,4.53E1,3.6E1,7.93E1,1.7E-2,1.312E2,2E0,-2.624E2,9.25E-1,2.249E2,9.6E-1,1.0774038E0,-1.262237E0,-8.90703E-1,-5.240223E-1,-3.9409265E-1,-1.156914E0,5.669918E-1,-1.8754451E-1,-1.5075425E0,2.519106E-2,2.3595205E-1,5.560476E-1,7.878405E-2,5.461301E-1,7.950081E-1,1.3632417E0],"split_indices":[0,0,8,12,8,0,11,7,1,7,12,6,1,0,1,0,0,0,0,0,0,0,0,0,0,0,0,0,0,0,0],"split_type":[0,0,0,0,0,0,0,0,0,0,0,0,0,0,0,0,0,0,0,0,0,0,0,0,0,0,0,0,0,0,0],"sum_hessian":[8.932E3,3.806E3,5.126E3,1.711E3,2.095E3,4.091E3,1.035E3,1.7E1,1.694E3,4.16E2,1.679E3,1.853E3,2.238E3,3.17E2,7.18E2,1.5E1,2E0,1.48E2,1.546E3,3.71E2,4.5E1,3.9E1,1.64E3,6E0,1.847E3,1.886E3,3.52E2,2.15E2,1.02E2,5.43E2,1.75E2],"tree_param":{"num_deleted":"0","num_feature":"13","num_nodes":"31","size_leaf_vector":"1"}},{"base_weights":[-9.601412E-2,-5.105901E0,7.6905155E0,-9.12158E0,-1.882395E0,5.573386E0,1.4066988E1,-1.3972463E1,-7.6180673E0,1.2541407E1,-2.0697768E0,7.3733845E0,2.5726082E0,2.8081724E1,1.2679499E1,-6.116099E-1,-1.1202078E0,-5.493962E-1,-3.0685243E-1,-6.3190025E-1,1.2100166E0,3.9292336E-1,-1.16038E-1,2.5006828E-1,5.9394664E-1,-3.018102E0,1.3485752E-1,-1.6975645E0,1.5080451E0,5.4872555E-1,1.2373003E0],"categories":[],"categories_nodes":[],"categories_segments":[],"categories_sizes":[],"default_left":[0,0,0,0,0,0,0,0,0,0,0,0,0,0,0,0,0,0,0,0,0,0,0,0,0,0,0,0,0,0,0],"id":14,"left_children":[1,3,5,7,9,11,13,15,17,19,21,23,25,27,29,-1,-1,-1,-1,-1,-1,-1,-1,-1,-1,-1,-1,-1,-1,-1,-1],"loss_changes":[3.500337E5,7.066014E4,4.734647E4,1.7623734E4,8.215308E3,1.42353125E4,1.6658578E4,8.148461E3,9.205516E3,1.1754874E4,7.4737744E3,1.7563852E4,7.9302773E3,1.108425E4,1.6145875E4,0E0,0E0,0E0,0E0,0E0,0E0,0E0,0E0,0E0,0E0,0E0,0E0,0E0,0E0,0E0,0E0],"parents":[2147483647,0,0,1,1,2,2,3,3,4,4,5,5,6,6,7,7,8,8,9,9,10,10,11,11,12,12,13,13,14,14],"right_children":[2,4,6,8,10,12,14,16,18,20,22,24,26,28,30,-1,-1,-1,-1,-1,-1,-1,-1,-1,-1,-1,-1,-1,-1,-1,-1],"split_conditions":[9E0,-2.791E2,9.03E-1,4.4E-2,5E-2,1.21E2,5E-1,2.7E1,6.111E-1,5E-2,1E0,6.5E1,1E0,5E-2,6.398E2,-6.116099E-1,-1.1202078E0,-5.493962E-1,-3.0685243E-1,-6.3190025E-1,1.2100166E0,3.9292336E-1,-1.16038E-1,2.5006828E-1,5.9394664E-1,-3.018102E0,1.3485752E-1,-1.6975645E0,1.5080451E0,5.4872555E-1,1.2373003E0],"split_indices":[0,0,1,1,5,12,3,11,5,3,12,11,11,3,0,0,0,0,0,0,0,0,0,0,0,0,0,0,0,0,0],"split_type":[0,0,0,0,0,0,0,0,0,0,0,0,0,0,0,0,0,0,0,0,0,0,0,0,0,0,0,0,0,0,0],"sum_hessian":[8.971E3,5.459E3,3.512E3,2.43E3,3.029E3,2.638E3,8.74E2,5.73E2,1.857E3,3.8E1,2.991E3,1.648E3,9.9E2,7.7E1,7.97E2,4.77E2,9.6E1,5.65E2,1.292E3,1.2E1,2.6E1,7.3E1,2.918E3,1.081E3,5.67E2,1E0,9.89E2,2E0,7.5E1,7E2,9.7E1],"tree_param":{"num_deleted":"0","num_feature":"13","num_nodes":"31","size_leaf_vector":"1"}},{"base_weights":[-3.6338978E-2,-6.129924E0,5.232587E0,-1.1710533E1,-4.648102E0,2.571337E0,1.3051456E1,2.8448906E1,-1.1883503E1,-8.137403E0,-3.58507E0,8.6886066E-1,6.24616E0,6.236734E0,1.5432692E1,2.014396E0,-1.7670316E-1,-8.6162037E-1,-5.323726E-1,-3.9110088E-1,-1.5504544E0,-4.494879E-1,-1.4713208E-1,-1.5868868E-1,9.4395734E-2,4.6500406E-1,1.7130598E-1,5.522055E-1,9.27574E-2,8.5273284E-1,3.9036316E-1],"categories":[],"categories_nodes":[],"categories_segments":[],"categories_sizes":[],"default_left":[0,0,0,0,0,0,0,0,0,0,0,0,0,0,0,0,0,0,0,0,0,0,0,0,0,0,0,0,0,0,0],"id":15,"left_children":[1,3,5,7,9,11,13,15,17,19,21,23,25,27,29,-1,-1,-1,-1,-1,-1,-1,-1,-1,-1,-1,-1,-1,-1,-1,-1],"loss_changes":[2.8533175E5,3.4024062E4,9.913721E4,6.3397344E3,1.2055516E4,2.2248225E4,1.9538953E4,1.6569666E3,5.509039E3,5.239625E3,8.650389E3,1.0025011E4,9.665457E3,6.6146514E3,1.0948734E4,0E0,0E0,0E0,0E0,0E0,0E0,0E0,0E0,0E0,0E0,0E0,0E0,0E0,0E0,0E0,0E0],"parents":[2147483647,0,0,1,1,2,2,3,3,4,4,5,5,6,6,7,7,8,8,9,9,10,10,11,11,12,12,13,13,14,14],"right_children":[2,4,6,8,10,12,14,16,18,20,22,24,26,28,30,-1,-1,-1,-1,-1,-1,-1,-1,-1,-1,-1,-1,-1,-1,-1,-1],"split_conditions":[4.68E-1,-5.383E2,8.333E-1,3E0,9.09E-2,7.98E-1,7.38E-1,-5.683E2,2E-2,2.717E2,5E-2,3.25E-1,9.5E1,4.167E-1,2.78E2,2.014396E0,-1.7670316E-1,-8.6162037E-1,-5.323726E-1,-3.9110088E-1,-1.5504544E0,-4.494879E-1,-1.4713208E-1,-1.5868868E-1,9.4395734E-2,4.6500406E-1,1.7130598E-1,5.522055E-1,9.27574E-2,8.5273284E-1,3.9036316E-1],"split_indices":[1,0,8,12,8,1,1,0,1,7,3,8,12,3,12,0,0,0,0,0,0,0,0,0,0,0,0,0,0,0,0],"split_type":[0,0,0,0,0,0,0,0,0,0,0,0,0,0,0,0,0,0,0,0,0,0,0,0,0,0,0,0,0,0,0],"sum_hessian":[8.885E3,4.12E3,4.765E3,8.63E2,3.257E3,3.556E3,1.209E3,3E0,8.6E2,7.59E2,2.498E3,2.431E3,1.125E3,3.14E2,8.95E2,2E0,1E0,1.59E2,7.01E2,7.5E2,9E0,2.64E2,2.234E3,4.89E2,1.942E3,5.39E2,5.86E2,1.49E2,1.65E2,7.37E2,1.58E2],"tree_param":{"num_deleted":"0","num_feature":"13","num_nodes":"31","size_leaf_vector":"1"}},{"base_weights":[1.6796482E-1,-3.6254156E0,7.42368E0,-7.31502E0,-2.3917E-1,4.7916627E0,1.4853138E1,-1.1075153E1,-5.8323846E0,-9.7907597E-1,5.161989E0,3.7623782E0,1.05362835E1,7.7990975E0,1.6977327E1,-4.7532153E-1,-8.6011934E-1,-4.386266E-1,-2.301263E-1,-1.8701866E-1,-5.1415847E-3,3.303468E-3,3.972599E-1,1.2983309E-1,3.8844576E-1,4.19555E-1,1.0576314E0,-2.0625098E-1,5.2379316E-1,1.2037281E0,7.5842565E-1],"categories":[],"categories_nodes":[],"categories_segments":[],"categories_sizes":[],"default_left":[0,0,0,0,0,0,0,0,0,0,0,0,0,0,0,0,0,0,0,0,0,0,0,0,0,0,0,0,0,0,0],"id":16,"left_children":[1,3,5,7,9,11,13,15,17,19,21,23,25,27,29,-1,-1,-1,-1,-1,-1,-1,-1,-1,-1,-1,-1,-1,-1,-1,-1],"loss_changes":[2.4531802E5,7.3125086E4,5.9765484E4,1.5550719E4,1.2205912E4,1.33293125E4,1.1854891E4,7.4395E3,7.231328E3,6.498582E3,5.2188213E3,8.942492E3,7.633992E3,6.0118896E3,7.5170938E3,0E0,0E0,0E0,0E0,0E0,0E0,0E0,0E0,0E0,0E0,0E0,0E0,0E0,0E0,0E0,0E0],"parents":[2147483647,0,0,1,1,2,2,3,3,4,4,5,5,6,6,7,7,8,8,9,9,10,10,11,11,12,12,13,13,14,14],"right_children":[2,4,6,8,10,12,14,16,18,20,22,24,26,28,30,-1,-1,-1,-1,-1,-1,-1,-1,-1,-1,-1,-1,-1,-1,-1,-1],"split_conditions":[4.53E1,-2.341E2,9.545E-1,-5.52E2,7.059E-1,9.29E-1,2.9E1,2.7E1,1.053E-1,8E0,3.7E1,5.5E-1,9.24E1,-7.99E1,4.167E-1,-4.7532153E-1,-8.6011934E-1,-4.386266E-1,-2.301263E-1,-1.8701866E-1,-5.1415847E-3,3.303468E-3,3.972599E-1,1.2983309E-1,3.8844576E-1,4.19555E-1,1.0576314E0,-2.0625098E-1,5.2379316E-1,1.2037281E0,7.5842565E-1],"split_indices":[0,0,8,0,8,1,11,11,8,11,11,10,6,6,3,0,0,0,0,0,0,0,0,0,0,0,0,0,0,0,0],"split_type":[0,0,0,0,0,0,0,0,0,0,0,0,0,0,0,0,0,0,0,0,0,0,0,0,0,0,0,0,0,0,0],"sum_hessian":[8.911E3,5.852E3,3.059E3,2.8E3,3.052E3,2.26E3,7.99E2,7.9E2,2.01E3,2.685E3,3.67E2,1.918E3,3.42E2,1.86E2,6.13E2,6.31E2,1.59E2,5.91E2,1.419E3,6.46E2,2.039E3,1.3E2,2.37E2,1.487E3,4.31E2,2.86E2,5.6E1,3.4E1,1.52E2,1.22E2,4.91E2],"tree_param":{"num_deleted":"0","num_feature":"13","num_nodes":"31","size_leaf_vector":"1"}},{"base_weights":[-4.4103608E-2,-4.7581553E0,5.834762E0,-7.2755885E0,-1.3973408E0,3.40264E0,1.1626084E1,1.0680746E1,-7.557578E0,-2.2895856E0,2.5257275E0,2.6939635E0,9.423244E0,7.699149E0,1.5299296E1,9.0570277E-1,-2.448961E-1,-5.202288E-1,-3.2278192E-1,-1.0552206E0,-1.0781454E-1,1.06835164E-1,1.610444E0,2.2349854E-1,3.6889438E-2,6.7983687E-1,2.0428686E-1,1.4710215E-1,5.2131563E-1,9.402551E-1,4.3001443E-1],"categories":[],"categories_nodes":[],"categories_segments":[],"categories_sizes":[],"default_left":[0,0,0,0,0,0,0,0,0,0,0,0,0,0,0,0,0,0,0,0,0,0,0,0,0,0,0,0,0,0,0],"id":17,"left_children":[1,3,5,7,9,11,13,15,17,19,21,23,25,27,29,-1,-1,-1,-1,-1,-1,-1,-1,-1,-1,-1,-1,-1,-1,-1,-1],"loss_changes":[2.462325E5,4.170918E4,5.5653344E4,1.4354734E4,7.401995E3,1.1861537E4,1.6744406E4,5.1839673E3,8.64175E3,4.273131E3,4.457787E3,8.661307E3,6.47133E3,7.325246E3,1.3999984E4,0E0,0E0,0E0,0E0,0E0,0E0,0E0,0E0,0E0,0E0,0E0,0E0,0E0,0E0,0E0,0E0],"parents":[2147483647,0,0,1,1,2,2,3,3,4,4,5,5,6,6,7,7,8,8,9,9,10,10,11,11,12,12,13,13,14,14],"right_children":[2,4,6,8,10,12,14,16,18,20,22,24,26,28,30,-1,-1,-1,-1,-1,-1,-1,-1,-1,-1,-1,-1,-1,-1,-1,-1],"split_conditions":[5.66E-1,2.9E-1,8.333E-1,5E0,5.357E-1,9.25E-1,8.7E-1,6.875E-1,-5.591E2,-2.624E2,2.352E2,8.7E1,1E1,-1.86E1,7.778E-1,9.0570277E-1,-2.448961E-1,-5.202288E-1,-3.2278192E-1,-1.0552206E0,-1.0781454E-1,1.06835164E-1,1.610444E0,2.2349854E-1,3.6889438E-2,6.7983687E-1,2.0428686E-1,1.4710215E-1,5.2131563E-1,9.402551E-1,4.3001443E-1],"split_indices":[1,1,8,12,8,1,1,5,0,6,6,12,9,6,3,0,0,0,0,0,0,0,0,0,0,0,0,0,0,0,0],"split_type":[0,0,0,0,0,0,0,0,0,0,0,0,0,0,0,0,0,0,0,0,0,0,0,0,0,0,0,0,0,0,0],"sum_hessian":[8.883E3,4.93E3,3.953E3,2.818E3,2.112E3,2.785E3,1.168E3,4.3E1,2.775E3,1.721E3,3.91E2,2.493E3,2.92E2,5.66E2,6.02E2,2.9E1,1.4E1,7.72E2,2.003E3,1.1E1,1.71E3,3.87E2,4E0,1.306E3,1.187E3,1.63E2,1.29E2,2.07E2,3.59E2,3.94E2,2.08E2],"tree_param":{"num_deleted":"0","num_feature":"13","num_nodes":"31","size_leaf_vector":"1"}},{"base_weights":[2.6455434E-2,-3.7407167E0,6.433677E0,-6.9680934E0,-4.6982273E-1,3.9628532E0,1.05374365E1,-6.18479E0,-1.1912528E1,1.3025087E0,-2.3810453E0,3.6900942E0,2.3239124E1,1.264789E1,3.9016666E0,4.9572244E-1,-3.2738382E-1,-1.2707262E0,-5.19353E-1,-2.8899333E-1,1.1355072E-1,5.17049E-1,-1.5757121E-1,2.5603142E-1,4.3854706E-2,2.3981485E0,4.8576227E-1,5.129394E-1,9.9364823E-1,7.72299E-2,2.9200876E-1],"categories":[],"categories_nodes":[],"categories_segments":[],"categories_sizes":[],"default_left":[0,0,0,0,0,0,0,0,0,0,0,0,0,0,0,0,0,0,0,0,0,0,0,0,0,0,0,0,0,0,0],"id":18,"left_children":[1,3,5,7,9,11,13,15,17,19,21,23,25,27,29,-1,-1,-1,-1,-1,-1,-1,-1,-1,-1,-1,-1,-1,-1,-1,-1],"loss_changes":[2.1832006E5,6.0126016E4,3.3916E4,1.10301875E4,9.589216E3,1.091352E4,1.7568281E4,1.4536031E4,7.7893945E3,1.0089469E4,1.3381252E4,8.301238E3,9.230537E3,1.6263547E4,1.3845845E3,0E0,0E0,0E0,0E0,0E0,0E0,0E0,0E0,0E0,0E0,0E0,0E0,0E0,0E0,0E0,0E0],"parents":[2147483647,0,0,1,1,2,2,3,3,4,4,5,5,6,6,7,7,8,8,9,9,10,10,11,11,12,12,13,13,14,14],"right_children":[2,4,6,8,10,12,14,16,18,20,22,24,26,28,30,-1,-1,-1,-1,-1,-1,-1,-1,-1,-1,-1,-1,-1,-1,-1,-1],"split_conditions":[2.84E1,2.9E-1,2.549E2,9.75E1,5E-1,2.352E2,3.01E2,8E0,-6.328E2,5E-2,3E0,1.35E2,5.5E-1,9.6E-1,9.4E-1,4.9572244E-1,-3.2738382E-1,-1.2707262E0,-5.19353E-1,-2.8899333E-1,1.1355072E-1,5.17049E-1,-1.5757121E-1,2.5603142E-1,4.3854706E-2,2.3981485E0,4.8576227E-1,5.129394E-1,9.9364823E-1,7.72299E-2,2.9200876E-1],"split_indices":[0,1,0,7,3,6,12,12,0,3,12,12,3,1,1,0,0,0,0,0,0,0,0,0,0,0,0,0,0,0,0],"split_type":[0,0,0,0,0,0,0,0,0,0,0,0,0,0,0,0,0,0,0,0,0,0,0,0,0,0,0,0,0,0,0],"sum_hessian":[9.043E3,5.695E3,3.348E3,2.866E3,2.829E3,2.091E3,1.257E3,2.476E3,3.9E2,1.468E3,1.361E3,2.063E3,2.8E1,9.53E2,3.04E2,5.4E1,2.422E3,3.8E1,3.52E2,1.76E2,1.292E3,7.7E1,1.284E3,1.367E3,6.96E2,9E0,1.9E1,7.18E2,2.35E2,1.38E2,1.66E2],"tree_param":{"num_deleted":"0","num_feature":"13","num_nodes":"31","size_leaf_vector":"1"}},{"base_weights":[9.988141E-2,-3.3560662E0,6.539924E0,-7.3047237E0,-1.1169119E0,3.6712823E0,1.2205135E1,-1.865789E1,-6.961493E0,-3.8671713E0,4.7742474E-1,-4.2928594E-1,4.6917315E0,9.836096E0,1.8259914E1,-1.5428315E0,-4.664707E-1,-5.172593E-1,-2.9969963E-1,-2.430723E-1,-5.1634354E-3,-1.5164351E-1,1.4182316E-1,-1.8759452E-1,9.906955E-2,-9.24684E-2,2.811147E-1,5.737017E-1,9.7946435E-2,1.0896214E0,5.024995E-1],"categories":[],"categories_nodes":[],"categories_segments":[],"categories_sizes":[],"default_left":[0,0,0,0,0,0,0,0,0,0,0,0,0,0,0,0,0,0,0,0,0,0,0,0,0,0,0,0,0,0,0],"id":19,"left_children":[1,3,5,7,9,11,13,15,17,19,21,23,25,27,29,-1,-1,-1,-1,-1,-1,-1,-1,-1,-1,-1,-1,-1,-1,-1,-1],"loss_changes":[1.9839367E5,5.1282266E4,5.0546E4,8.0494062E3,1.6238905E4,8.655396E3,1.4824219E4,6.653662E3,6.613117E3,5.0853535E3,1.9427361E4,3.315451E3,1.0090305E4,9.705859E3,8.278477E3,0E0,0E0,0E0,0E0,0E0,0E0,0E0,0E0,0E0,0E0,0E0,0E0,0E0,0E0,0E0,0E0],"parents":[2147483647,0,0,1,1,2,2,3,3,4,4,5,5,6,6,7,7,8,8,9,9,10,10,11,11,12,12,13,13,14,14],"right_children":[2,4,6,8,10,12,14,16,18,20,22,24,26,28,30,-1,-1,-1,-1,-1,-1,-1,-1,-1,-1,-1,-1,-1,-1,-1,-1],"split_conditions":[6.67E-1,1.96E-1,8.333E-1,1.1E-2,4.25E-1,5E-1,9.47E-1,9.167E-1,6.111E-1,2.54E2,1.4E1,3.889E-1,6E0,7.857E-1,1.26E1,-1.5428315E0,-4.664707E-1,-5.172593E-1,-2.9969963E-1,-2.430723E-1,-5.1634354E-3,-1.5164351E-1,1.4182316E-1,-1.8759452E-1,9.906955E-2,-9.24684E-2,2.811147E-1,5.737017E-1,9.7946435E-2,1.0896214E0,5.024995E-1],"split_indices":[1,1,8,1,8,8,1,5,5,11,11,5,11,3,7,0,0,0,0,0,0,0,0,0,0,0,0,0,0,0,0],"split_type":[0,0,0,0,0,0,0,0,0,0,0,0,0,0,0,0,0,0,0,0,0,0,0,0,0,0,0,0,0,0,0],"sum_hessian":[8.912E3,5.8E3,3.112E3,2.098E3,3.702E3,2.067E3,1.045E3,6E1,2.038E3,1.358E3,2.344E3,4.12E2,1.655E3,7.53E2,2.92E2,2.5E1,3.5E1,4.51E2,1.587E3,1.074E3,2.84E2,9.42E2,1.402E3,1.73E2,2.39E2,2.06E2,1.449E3,6.23E2,1.3E2,2.03E2,8.9E1],"tree_param":{"num_deleted":"0","num_feature":"13","num_nodes":"31","size_leaf_vector":"1"}},{"base_weights":[4.0913682E-2,-3.3756435E0,5.968523E0,-6.095798E0,-6.184707E-1,3.6011202E0,1.0024211E1,2.037854E1,-6.233821E0,-5.861215E0,1.3470553E-1,5.1746435E0,4.0018412E-1,1.3714205E1,5.7617955E0,1.808092E-1,3.278549E0,-1.0748754E0,-3.0286393E-1,3.0540872E-1,-3.641012E-1,6.209684E-1,-1.6871966E-2,4.1434642E-2,3.5594875E-1,-2.3220677E0,3.0342866E-2,4.816497E-1,1.0286342E0,2.3193634E-1,9.5653725E-1],"categories":[],"categories_nodes":[],"categories_segments":[],"categories_sizes":[],"default_left":[0,0,0,0,0,0,0,0,0,0,0,0,0,0,0,0,0,0,0,0,0,0,0,0,0,0,0,0,0,0,0],"id":20,"left_children":[1,3,5,7,9,11,13,15,17,19,21,23,25,27,29,-1,-1,-1,-1,-1,-1,-1,-1,-1,-1,-1,-1,-1,-1,-1,-1],"loss_changes":[1.8056688E5,4.2415875E4,3.1264617E4,1.0530172E4,1.1096666E4,1.0373627E4,1.8810648E4,1.1125859E4,7.5038203E3,6.047672E3,1.4260936E4,1.1663508E4,6.6111885E3,1.7799977E4,8.304223E3,0E0,0E0,0E0,0E0,0E0,0E0,0E0,0E0,0E0,0E0,0E0,0E0,0E0,0E0,0E0,0E0],"parents":[2147483647,0,0,1,1,2,2,3,3,4,4,5,5,6,6,7,7,8,8,9,9,10,10,11,11,12,12,13,13,14,14],"right_children":[2,4,6,8,10,12,14,16,18,20,22,24,26,28,30,-1,-1,-1,-1,-1,-1,-1,-1,-1,-1,-1,-1,-1,-1,-1,-1],"split_conditions":[2.84E1,-2.304E2,2.549E2,2E0,3E0,1.38E2,1.28E2,3.3E1,-9.086E2,1E0,3E0,1.6E1,1E0,1.13E2,6.939E2,1.808092E-1,3.278549E0,-1.0748754E0,-3.0286393E-1,3.0540872E-1,-3.641012E-1,6.209684E-1,-1.6871966E-2,4.1434642E-2,3.5594875E-1,-2.3220677E0,3.0342866E-2,4.816497E-1,1.0286342E0,2.3193634E-1,9.5653725E-1],"split_indices":[0,0,0,12,11,12,12,11,0,12,12,11,11,11,0,0,0,0,0,0,0,0,0,0,0,0,0,0,0,0,0],"split_type":[0,0,0,0,0,0,0,0,0,0,0,0,0,0,0,0,0,0,0,0,0,0,0,0,0,0,0,0,0,0,0],"sum_hessian":[8.914E3,5.655E3,3.259E3,2.846E3,2.809E3,2.059E3,1.2E3,1.4E1,2.832E3,3.52E2,2.457E3,1.38E3,6.79E2,6.42E2,5.58E2,1.1E1,3E0,3.1E1,2.801E3,3.7E1,3.15E2,9E1,2.367E3,4.27E2,9.53E2,2E0,6.77E2,4.04E2,2.38E2,5.16E2,4.2E1],"tree_param":{"num_deleted":"0","num_feature":"13","num_nodes":"31","size_leaf_vector":"1"}},{"base_weights":[2.377202E-2,-2.0883853E0,7.728147E0,-7.0024714E0,-7.820694E-1,1.4063891E1,6.5604887E0,-1.0061889E1,-4.7186046E0,-5.3095717E0,9.174789E-1,1.5665331E1,1.5368814E0,1.1891083E0,7.7523413E0,-3.970383E-1,-6.9621986E-1,-5.578028E-2,-3.658031E-1,-1.7428909E-1,-4.777374E-1,3.7504685E-1,-1.1328633E-2,2.82667E-1,9.0708303E-1,-3.3754238E-1,5.900244E-1,-6.188788E-2,3.8937268E-1,2.4601845E-1,5.3963983E-1],"categories":[],"categories_nodes":[],"categories_segments":[],"categories_sizes":[],"default_left":[0,0,0,0,0,0,0,0,0,0,0,0,0,0,0,0,0,0,0,0,0,0,0,0,0,0,0,0,0,0,0],"id":21,"left_children":[1,3,5,7,9,11,13,15,17,19,21,23,25,27,29,-1,-1,-1,-1,-1,-1,-1,-1,-1,-1,-1,-1,-1,-1,-1,-1],"loss_changes":[1.4573953E5,4.5116133E4,1.4163656E4,1.0265773E4,4.274128E4,5.9742344E3,1.0419469E4,5.0509297E3,7.9186035E3,1.1704035E4,3.0422703E4,6.467582E3,3.0568325E3,4.765589E3,1.1424672E4,0E0,0E0,0E0,0E0,0E0,0E0,0E0,0E0,0E0,0E0,0E0,0E0,0E0,0E0,0E0,0E0],"parents":[2147483647,0,0,1,1,2,2,3,3,4,4,5,5,6,6,7,7,8,8,9,9,10,10,11,11,12,12,13,13,14,14],"right_children":[2,4,6,8,10,12,14,16,18,20,22,24,26,28,30,-1,-1,-1,-1,-1,-1,-1,-1,-1,-1,-1,-1,-1,-1,-1,-1],"split_conditions":[6.875E-1,9.38E-2,-1.071E2,-2.67E1,7E0,8.333E-1,2.8E1,2.43E2,1.7E1,2.31E2,1.9E1,8.333E-1,1.93E2,7.222E-1,9.545E-1,-3.970383E-1,-6.9621986E-1,-5.578028E-2,-3.658031E-1,-1.7428909E-1,-4.777374E-1,3.7504685E-1,-1.1328633E-2,2.82667E-1,9.0708303E-1,-3.3754238E-1,5.900244E-1,-6.188788E-2,3.8937268E-1,2.4601845E-1,5.3963983E-1],"split_indices":[8,8,7,6,11,2,11,12,11,12,12,8,11,3,8,0,0,0,0,0,0,0,0,0,0,0,0,0,0,0,0],"split_type":[0,0,0,0,0,0,0,0,0,0,0,0,0,0,0,0,0,0,0,0,0,0,0,0,0,0,0,0,0,0,0],"sum_hessian":[8.954E3,7.028E3,1.926E3,1.475E3,5.553E3,2.98E2,1.628E3,6.29E2,8.46E2,1.515E3,4.038E3,2.64E2,3.4E1,2.96E2,1.332E3,4.08E2,2.21E2,3.55E2,4.91E2,1.061E3,4.54E2,5.97E2,3.441E3,5.3E1,2.11E2,1.9E1,1.5E1,2.17E2,7.9E1,6.91E2,6.41E2],"tree_param":{"num_deleted":"0","num_feature":"13","num_nodes":"31","size_leaf_vector":"1"}},{"base_weights":[4.0757414E-3,-3.9125073E0,4.304492E0,-5.8391557E0,-1.0658959E0,2.307154E0,9.423039E0,-1.1839523E1,-5.3022575E0,-4.686619E0,3.1801257E-2,-2.4203894E0,3.0909004E0,7.6505675E0,1.6662022E1,-5.255179E-1,-1.6506703E0,-3.9742866E-1,-2.0415984E-1,-2.2355846E-1,-1.7254132E0,-1.2342431E-1,1.2120356E-1,7.826531E-2,-2.4264403E-1,1.0762806E-1,3.6471203E-1,1.3747972E-1,4.675699E-1,1.0119021E0,3.4235016E-1],"categories":[],"categories_nodes":[],"categories_segments":[],"categories_sizes":[],"default_left":[0,0,0,0,0,0,0,0,0,0,0,0,0,0,0,0,0,0,0,0,0,0,0,0,0,0,0,0,0,0,0],"id":22,"left_children":[1,3,5,7,9,11,13,15,17,19,21,23,25,27,29,-1,-1,-1,-1,-1,-1,-1,-1,-1,-1,-1,-1,-1,-1,-1,-1],"loss_changes":[1.5035692E5,2.5616977E4,4.3479117E4,8.91257E3,7.4999507E3,1.1352786E4,1.5192602E4,6.069758E3,8.22293E3,2.6663115E3,8.672976E3,4.2346895E3,1.0345602E4,7.984918E3,8.0745312E3,0E0,0E0,0E0,0E0,0E0,0E0,0E0,0E0,0E0,0E0,0E0,0E0,0E0,0E0,0E0,0E0],"parents":[2147483647,0,0,1,1,2,2,3,3,4,4,5,5,6,6,7,7,8,8,9,9,10,10,11,11,12,12,13,13,14,14],"right_children":[2,4,6,8,10,12,14,16,18,20,22,24,26,28,30,-1,-1,-1,-1,-1,-1,-1,-1,-1,-1,-1,-1,-1,-1,-1,-1],"split_conditions":[5.35E-1,2.9E-1,8.333E-1,2.4E-2,8E0,3.214E-1,9.57E-1,1.102E2,6.111E-1,2.309E2,4.737E-1,5E-1,5.5E-1,3.2E1,3.01E2,-5.255179E-1,-1.6506703E0,-3.9742866E-1,-2.0415984E-1,-2.2355846E-1,-1.7254132E0,-1.2342431E-1,1.2120356E-1,7.826531E-2,-2.4264403E-1,1.0762806E-1,3.6471203E-1,1.3747972E-1,4.675699E-1,1.0119021E0,3.4235016E-1],"split_indices":[1,1,8,1,11,8,1,7,5,7,8,2,10,11,12,0,0,0,0,0,0,0,0,0,0,0,0,0,0,0,0],"split_type":[0,0,0,0,0,0,0,0,0,0,0,0,0,0,0,0,0,0,0,0,0,0,0,0,0,0,0,0,0,0,0],"sum_hessian":[8.925E3,4.671E3,4.254E3,2.785E3,1.886E3,3.061E3,1.193E3,2.27E2,2.558E3,4.38E2,1.448E3,4.35E2,2.626E3,9.6E2,2.33E2,2.15E2,1.2E1,8.05E2,1.753E3,4.36E2,2E0,7.08E2,7.4E2,1.65E2,2.7E2,2.148E3,4.78E2,2.48E2,7.12E2,1.7E2,6.3E1],"tree_param":{"num_deleted":"0","num_feature":"13","num_nodes":"31","size_leaf_vector":"1"}},{"base_weights":[-6.418018E-2,-3.7719471E0,4.2712774E0,-5.7913055E0,-1.0717936E0,2.5731504E0,9.6276045E0,-8.587065E0,-4.5591474E0,1.0997097E0,-2.591679E0,-3.656673E0,3.239568E0,2.7739692E0,1.2361301E1,-3.4969482E-1,-7.7620226E-1,-3.6160314E-1,-1.4971785E-1,-1.5329143E-1,1.8031739E-1,1.4089236E0,-1.3708723E-1,1.3772143E-1,-3.6530158E-1,-7.2564356E-2,1.9926289E-1,-3.601474E-1,2.5157455E-1,8.6364144E-1,4.3877837E-1],"categories":[],"categories_nodes":[],"categories_segments":[],"categories_sizes":[],"default_left":[0,0,0,0,0,0,0,0,0,0,0,0,0,0,0,0,0,0,0,0,0,0,0,0,0,0,0,0,0,0,0],"id":23,"left_children":[1,3,5,7,9,11,13,15,17,19,21,23,25,27,29,-1,-1,-1,-1,-1,-1,-1,-1,-1,-1,-1,-1,-1,-1,-1,-1],"loss_changes":[1.441916E5,2.6357016E4,3.758604E4,9.489211E3,6.8347534E3,1.3052225E4,1.8607797E4,9.23018E3,8.017207E3,8.917653E3,5.7014136E3,7.132633E3,9.932883E3,6.455327E3,1.2370141E4,0E0,0E0,0E0,0E0,0E0,0E0,0E0,0E0,0E0,0E0,0E0,0E0,0E0,0E0,0E0,0E0],"parents":[2147483647,0,0,1,1,2,2,3,3,4,4,5,5,6,6,7,7,8,8,9,9,10,10,11,11,12,12,13,13,14,14],"right_children":[2,4,6,8,10,12,14,16,18,20,22,24,26,28,30,-1,-1,-1,-1,-1,-1,-1,-1,-1,-1,-1,-1,-1,-1,-1,-1],"split_conditions":[-3.75E1,-2.381E2,9.167E-1,-5.445E2,3.889E-1,2.059E-1,3.6E1,2.7E1,6.111E-1,1.4E1,5E-2,5E1,7E0,-7.99E1,6.3E1,-3.4969482E-1,-7.7620226E-1,-3.6160314E-1,-1.4971785E-1,-1.5329143E-1,1.8031739E-1,1.4089236E0,-1.3708723E-1,1.3772143E-1,-3.6530158E-1,-7.2564356E-2,1.9926289E-1,-3.601474E-1,2.5157455E-1,8.6364144E-1,4.3877837E-1],"split_indices":[0,0,8,0,3,8,11,11,5,11,5,12,11,6,12,0,0,0,0,0,0,0,0,0,0,0,0,0,0,0,0],"split_type":[0,0,0,0,0,0,0,0,0,0,0,0,0,0,0,0,0,0,0,0,0,0,0,0,0,0,0,0,0,0,0],"sum_hessian":[8.968E3,4.834E3,4.134E3,2.765E3,2.069E3,3.14E3,9.94E2,8.44E2,1.921E3,8.52E2,1.217E3,3.03E2,2.837E3,2.84E2,7.1E2,6.88E2,1.56E2,7.08E2,1.213E3,3.2E2,5.32E2,5E0,1.212E3,1.1E2,1.93E2,3.89E2,2.448E3,5.2E1,2.32E2,2.98E2,4.12E2],"tree_param":{"num_deleted":"0","num_feature":"13","num_nodes":"31","size_leaf_vector":"1"}},{"base_weights":[6.687711E-2,-2.2068152E0,6.3333907E0,-5.018256E0,-5.1919807E-2,3.9572875E0,1.1797219E1,-7.4258494E0,-3.8564272E0,1.5406241E0,-1.4690219E0,3.7748127E0,2.2425041E1,4.329016E0,1.3741839E1,-2.4086681E-1,-5.6645495E-1,-3.6264834E-1,-9.5937245E-2,-1.3932009E-1,1.6898386E-1,-3.4422383E-1,-3.149307E-2,-7.910582E-3,2.2610867E-1,1.4218886E0,3.8321003E-1,-9.011115E-3,6.060489E-1,8.0013716E-1,3.169082E-1],"categories":[],"categories_nodes":[],"categories_segments":[],"categories_sizes":[],"default_left":[0,0,0,0,0,0,0,0,0,0,0,0,0,0,0,0,0,0,0,0,0,0,0,0,0,0,0,0,0,0,0],"id":24,"left_children":[1,3,5,7,9,11,13,15,17,19,21,23,25,27,29,-1,-1,-1,-1,-1,-1,-1,-1,-1,-1,-1,-1,-1,-1,-1,-1],"loss_changes":[1.2705026E5,3.9639594E4,3.0774047E4,7.9126484E3,8.363698E3,5.495908E3,1.0382414E4,9.343113E3,1.2602654E4,1.389548E4,8.907303E3,4.824252E3,1.2020938E3,5.2725566E3,9.439797E3,0E0,0E0,0E0,0E0,0E0,0E0,0E0,0E0,0E0,0E0,0E0,0E0,0E0,0E0,0E0,0E0],"parents":[2147483647,0,0,1,1,2,2,3,3,4,4,5,5,6,6,7,7,8,8,9,9,10,10,11,11,12,12,13,13,14,14],"right_children":[2,4,6,8,10,12,14,16,18,20,22,24,26,28,30,-1,-1,-1,-1,-1,-1,-1,-1,-1,-1,-1,-1,-1,-1,-1,-1],"split_conditions":[1.163E2,-2.271E2,9.545E-1,6.25E-2,5E-1,9.92E-1,2.8E1,2.5E1,5E0,1.4E1,1.765E-1,5E-1,6.75E-1,7.222E-1,7.778E-1,-2.4086681E-1,-5.6645495E-1,-3.6264834E-1,-9.5937245E-2,-1.3932009E-1,1.6898386E-1,-3.4422383E-1,-3.149307E-2,-7.910582E-3,2.2610867E-1,1.4218886E0,3.8321003E-1,-9.011115E-3,6.060489E-1,8.0013716E-1,3.169082E-1],"split_indices":[0,0,8,8,3,1,11,11,11,11,8,8,8,3,3,0,0,0,0,0,0,0,0,0,0,0,0,0,0,0,0],"split_type":[0,0,0,0,0,0,0,0,0,0,0,0,0,0,0,0,0,0,0,0,0,0,0,0,0,0,0,0,0,0,0],"sum_hessian":[8.915E3,6.542E3,2.373E3,2.838E3,3.704E3,1.655E3,7.18E2,9.22E2,1.916E3,1.744E3,1.96E3,1.64E3,1.5E1,1.49E2,5.69E2,5.54E2,3.68E2,6.95E2,1.221E3,5.2E2,1.224E3,2.62E2,1.698E3,2.62E2,1.378E3,1E1,5E0,9.5E1,5.4E1,4.35E2,1.34E2],"tree_param":{"num_deleted":"0","num_feature":"13","num_nodes":"31","size_leaf_vector":"1"}},{"base_weights":[2.415592E-2,-3.1372333E0,3.9011319E0,-5.863668E0,-1.5990915E0,2.116785E0,7.961234E0,-1.3066322E1,-5.4387584E0,1.0663185E1,-1.7525955E0,3.382911E0,1.507279E-1,1.104635E1,4.3487515E0,-8.7591887E-1,-1.4395165E-1,7.1344036E-1,-2.794773E-1,3.63859E-1,2.4434764E0,-1.6322906E-1,-3.6256623E-2,6.675368E-2,3.791592E-1,-3.0011818E-1,4.761596E-2,3.4528512E-1,9.395604E-1,1.1681E-1,6.1450976E-1],"categories":[],"categories_nodes":[],"categories_segments":[],"categories_sizes":[],"default_left":[0,0,0,0,0,0,0,0,0,0,0,0,0,0,0,0,0,0,0,0,0,0,0,0,0,0,0,0,0,0,0],"id":25,"left_children":[1,3,5,7,9,11,13,15,17,19,21,23,25,27,29,-1,-1,-1,-1,-1,-1,-1,-1,-1,-1,-1,-1,-1,-1,-1,-1],"loss_changes":[1.09341375E5,2.0598184E4,2.9012383E4,5.3521094E3,5.9347817E3,6.932123E3,1.3582211E4,4.394291E3,5.0572734E3,4.689676E3,4.8212793E3,1.4560775E4,5.391749E3,2.1003523E4,9.001437E3,0E0,0E0,0E0,0E0,0E0,0E0,0E0,0E0,0E0,0E0,0E0,0E0,0E0,0E0,0E0,0E0],"parents":[2147483647,0,0,1,1,2,2,3,3,4,4,5,5,6,6,7,7,8,8,9,9,10,10,11,11,12,12,13,13,14,14],"right_children":[2,4,6,8,10,12,14,16,18,20,22,24,26,28,30,-1,-1,-1,-1,-1,-1,-1,-1,-1,-1,-1,-1,-1,-1,-1,-1],"split_conditions":[-3.21E1,-3.75E2,2.549E2,-8.104E2,5E-2,1.06E2,1.35E2,7.61E2,4E0,5.5E-1,5.5E-1,6E1,2.778E-1,1.24E2,5.526E2,-8.7591887E-1,-1.4395165E-1,7.1344036E-1,-2.794773E-1,3.63859E-1,2.4434764E0,-1.6322906E-1,-3.6256623E-2,6.675368E-2,3.791592E-1,-3.0011818E-1,4.761596E-2,3.4528512E-1,9.395604E-1,1.1681E-1,6.1450976E-1],"split_indices":[0,0,0,0,5,12,12,12,12,3,5,11,5,11,0,0,0,0,0,0,0,0,0,0,0,0,0,0,0,0,0],"split_type":[0,0,0,0,0,0,0,0,0,0,0,0,0,0,0,0,0,0,0,0,0,0,0,0,0,0,0,0,0,0,0],"sum_hessian":[8.919E3,4.913E3,4.006E3,1.771E3,3.142E3,2.784E3,1.222E3,9.7E1,1.674E3,3.8E1,3.104E3,1.693E3,1.091E3,6.58E2,5.64E2,6.7E1,3E1,1.2E1,1.662E3,3.6E1,2E0,1.255E3,1.849E3,1.139E3,5.54E2,1.25E2,9.66E2,4.3E2,2.28E2,4.51E2,1.13E2],"tree_param":{"num_deleted":"0","num_feature":"13","num_nodes":"31","size_leaf_vector":"1"}},{"base_weights":[2.1609478E-1,-2.4660196E0,5.184393E0,-6.086886E0,-9.771648E-1,3.4063501E0,1.0204293E1,-5.3661094E0,-1.2684836E1,-3.3707101E0,1.9486621E-1,5.262976E0,8.7953573E-1,5.6981316E0,1.2619997E1,8.895761E-1,-2.8114653E-1,-1.0123321E0,-4.4794875E-1,-4.0215898E-1,-1.3306099E-1,-9.5406115E-2,7.583504E-2,2.1234953E-1,6.3256985E-1,-1.806062E0,6.2925875E-2,1.1036159E0,2.421908E-1,8.2370806E-1,3.421399E-1],"categories":[],"categories_nodes":[],"categories_segments":[],"categories_sizes":[],"default_left":[0,0,0,0,0,0,0,0,0,0,0,0,0,0,0,0,0,0,0,0,0,0,0,0,0,0,0,0,0,0,0],"id":26,"left_children":[1,3,5,7,9,11,13,15,17,19,21,23,25,27,29,-1,-1,-1,-1,-1,-1,-1,-1,-1,-1,-1,-1,-1,-1,-1,-1],"loss_changes":[1.1923642E5,3.1320824E4,2.7964844E4,7.983246E3,1.1555728E4,1.0869918E4,8.854242E3,9.187617E3,4.495537E3,4.467204E3,7.6918286E3,9.974992E3,1.3829691E4,3.921837E3,1.1755195E4,0E0,0E0,0E0,0E0,0E0,0E0,0E0,0E0,0E0,0E0,0E0,0E0,0E0,0E0,0E0,0E0],"parents":[2147483647,0,0,1,1,2,2,3,3,4,4,5,5,6,6,7,7,8,8,9,9,10,10,11,11,12,12,13,13,14,14],"right_children":[2,4,6,8,10,12,14,16,18,20,22,24,26,28,30,-1,-1,-1,-1,-1,-1,-1,-1,-1,-1,-1,-1,-1,-1,-1,-1],"split_conditions":[4.53E1,-3.862E2,9.5E-1,9.75E1,3.5E-1,1.35E2,5.9E1,1.1E1,-5.383E2,-1.149E2,1.5E1,2.12E2,1E1,-2.426E2,1.21E2,8.895761E-1,-2.8114653E-1,-1.0123321E0,-4.4794875E-1,-4.0215898E-1,-1.3306099E-1,-9.5406115E-2,7.583504E-2,2.1234953E-1,6.3256985E-1,-1.806062E0,6.2925875E-2,1.1036159E0,2.421908E-1,8.2370806E-1,3.421399E-1],"split_indices":[0,0,8,7,8,12,11,12,0,6,11,11,11,7,12,0,0,0,0,0,0,0,0,0,0,0,0,0,0,0,0],"split_type":[0,0,0,0,0,0,0,0,0,0,0,0,0,0,0,0,0,0,0,0,0,0,0,0,0,0,0,0,0,0,0],"sum_hessian":[8.946E3,5.81E3,3.136E3,1.692E3,4.118E3,2.317E3,8.19E2,1.527E3,1.65E2,1.353E3,2.765E3,1.335E3,9.82E2,2.87E2,5.32E2,1.6E1,1.511E3,5.3E1,1.12E2,1.77E2,1.176E3,1.067E3,1.698E3,1.175E3,1.6E2,9E0,9.73E2,1.3E1,2.74E2,3.18E2,2.14E2],"tree_param":{"num_deleted":"0","num_feature":"13","num_nodes":"31","size_leaf_vector":"1"}},{"base_weights":[-9.082806E-2,-3.4861526E0,2.8657024E0,-6.552261E0,-2.2809966E0,1.3726622E0,7.8287244E0,-3.0141234E0,-9.689304E0,-5.3963885E0,-6.7504287E-1,-1.4645506E0,2.4419196E0,6.7575045E0,1.7418474E1,-3.061896E-1,9.283017E-3,-7.856626E-1,-3.9829782E-1,-3.032051E-1,5.9146143E-2,-5.2760687E-2,2.377448E-1,-1.4638276E0,-6.625707E-2,8.11229E-2,3.189814E-1,7.984996E-1,2.700288E-1,1.6773033E0,6.8615735E-1],"categories":[],"categories_nodes":[],"categories_segments":[],"categories_sizes":[],"default_left":[0,0,0,0,0,0,0,0,0,0,0,0,0,0,0,0,0,0,0,0,0,0,0,0,0,0,0,0,0,0,0],"id":27,"left_children":[1,3,5,7,9,11,13,15,17,19,21,23,25,27,29,-1,-1,-1,-1,-1,-1,-1,-1,-1,-1,-1,-1,-1,-1,-1,-1],"loss_changes":[9.0234945E4,1.544552E4,3.5594266E4,1.3067961E4,1.5030899E4,1.1213137E4,1.1295297E4,5.533485E3,6.3631797E3,4.496916E3,4.1005977E3,3.8849827E3,8.650384E3,1.2426941E4,6.1548867E3,0E0,0E0,0E0,0E0,0E0,0E0,0E0,0E0,0E0,0E0,0E0,0E0,0E0,0E0,0E0,0E0],"parents":[2147483647,0,0,1,1,2,2,3,3,4,4,5,5,6,6,7,7,8,8,9,9,10,10,11,11,12,12,13,13,14,14],"right_children":[2,4,6,8,10,12,14,16,18,20,22,24,26,28,30,-1,-1,-1,-1,-1,-1,-1,-1,-1,-1,-1,-1,-1,-1,-1,-1],"split_conditions":[4.68E-1,9.38E-2,8.684E-1,1.7E1,7E0,5E-1,5.712E2,1E-1,-5.591E2,2.75E1,7.333E-1,-2.624E2,5.5E-1,-1.349E2,1.667E-1,-3.061896E-1,9.283017E-3,-7.856626E-1,-3.9829782E-1,-3.032051E-1,5.9146143E-2,-5.2760687E-2,2.377448E-1,-1.4638276E0,-6.625707E-2,8.11229E-2,3.189814E-1,7.984996E-1,2.700288E-1,1.6773033E0,6.8615735E-1],"split_indices":[1,8,8,11,11,8,0,2,0,6,8,6,10,7,5,0,0,0,0,0,0,0,0,0,0,0,0,0,0,0,0],"split_type":[0,0,0,0,0,0,0,0,0,0,0,0,0,0,0,0,0,0,0,0,0,0,0,0,0,0,0,0,0,0,0],"sum_hessian":[8.987E3,4.183E3,4.804E3,1.179E3,3.004E3,3.694E3,1.11E3,5.55E2,6.24E2,1.021E3,1.983E3,1.011E3,2.683E3,1E3,1.1E2,2.81E2,2.74E2,1.37E2,4.87E2,9.27E2,9.4E1,1.854E3,1.29E2,4E0,1.007E3,2.222E3,4.61E2,1.27E2,8.73E2,1.9E1,9.1E1],"tree_param":{"num_deleted":"0","num_feature":"13","num_nodes":"31","size_leaf_vector":"1"}},{"base_weights":[6.489402E-2,-3.349711E0,2.599764E0,-5.2378855E0,-1.8307548E0,1.0526904E0,6.147081E0,1.0789355E1,-5.4654894E0,1.5522384E1,-2.0048234E0,2.853007E-1,4.07183E0,4.292469E0,1.0048403E1,1.2320461E0,-2.557811E-1,-1.2685868E0,-2.6286042E-1,4.139338E-1,2.8112533E0,-1.7438257E-1,3.5356153E-3,1.2108709E-1,-6.106431E-2,3.524265E-1,1.0939609E-1,6.5535253E-1,1.7124516E-1,3.9687148E-1,7.3410964E-1],"categories":[],"categories_nodes":[],"categories_segments":[],"categories_sizes":[],"default_left":[0,0,0,0,0,0,0,0,0,0,0,0,0,0,0,0,0,0,0,0,0,0,0,0,0,0,0,0,0,0,0],"id":28,"left_children":[1,3,5,7,9,11,13,15,17,19,21,23,25,27,29,-1,-1,-1,-1,-1,-1,-1,-1,-1,-1,-1,-1,-1,-1,-1,-1],"loss_changes":[7.703471E4,1.086607E4,2.8026031E4,6.2238555E3,6.383523E3,8.242213E3,1.1179039E4,5.413466E3,6.7781484E3,5.7261357E3,6.4110146E3,9.137726E3,4.0278232E3,8.0076426E3,4.764578E3,0E0,0E0,0E0,0E0,0E0,0E0,0E0,0E0,0E0,0E0,0E0,0E0,0E0,0E0,0E0,0E0],"parents":[2147483647,0,0,1,1,2,2,3,3,4,4,5,5,6,6,7,7,8,8,9,9,10,10,11,11,12,12,13,13,14,14],"right_children":[2,4,6,8,10,12,14,16,18,20,22,24,26,28,30,-1,-1,-1,-1,-1,-1,-1,-1,-1,-1,-1,-1,-1,-1,-1,-1],"split_conditions":[4.2E-1,-3.862E2,8.38E-1,9E0,1E0,7.368E-1,1E0,6.25E-1,3.125E-1,1.2E0,7E-1,5E1,4.167E-1,1.2E1,9.6E-1,1.2320461E0,-2.557811E-1,-1.2685868E0,-2.6286042E-1,4.139338E-1,2.8112533E0,-1.7438257E-1,3.5356153E-3,1.2108709E-1,-6.106431E-2,3.524265E-1,1.0939609E-1,6.5535253E-1,1.7124516E-1,3.9687148E-1,7.3410964E-1],"split_indices":[1,0,1,12,12,8,8,4,5,6,5,12,3,12,1,0,0,0,0,0,0,0,0,0,0,0,0,0,0,0,0],"split_type":[0,0,0,0,0,0,0,0,0,0,0,0,0,0,0,0,0,0,0,0,0,0,0,0,0,0,0,0,0,0,0],"sum_hessian":[8.898E3,3.791E3,5.107E3,1.689E3,2.102E3,3.557E3,1.55E3,2.3E1,1.666E3,2E1,2.082E3,2.837E3,7.2E2,1.052E3,4.98E2,1.2E1,1.1E1,1.6E1,1.65E3,1.8E1,2E0,1.214E3,8.68E2,1.173E3,1.664E3,2.78E2,4.42E2,9.3E1,9.59E2,3.44E2,1.54E2],"tree_param":{"num_deleted":"0","num_feature":"13","num_nodes":"31","size_leaf_vector":"1"}},{"base_weights":[-2.074442E-1,-1.9901657E0,4.7449837E0,-3.8895018E0,-1.9118322E-1,4.0864882E0,1.2330969E1,-6.249448E0,-3.1084483E0,3.3609593E0,-8.901871E-1,6.254781E0,1.5649655E0,2.5635772E0,1.1422357E1,-2.3427866E-1,-6.297605E-1,-1.4535329E-1,-7.4536395E-1,8.4492765E-2,4.7606134E-1,3.0452362E-1,-6.316525E-2,1.8686664E-3,4.1730887E-1,-1.734461E-1,1.271209E-1,7.036533E-1,8.8465236E-2],"categories":[],"categories_nodes":[],"categories_segments":[],"categories_sizes":[],"default_left":[0,0,0,0,0,0,0,0,0,0,0,0,0,0,0,0,0,0,0,0,0,0,0,0,0,0,0,0,0],"id":29,"left_children":[1,3,5,7,9,11,13,15,17,19,21,23,25,-1,27,-1,-1,-1,-1,-1,-1,-1,-1,-1,-1,-1,-1,-1,-1],"loss_changes":[7.8718195E4,2.2400275E4,1.1738602E4,5.8586797E3,8.365605E3,1.1870871E4,6.0661523E3,7.8007773E3,5.654504E3,5.6870337E3,7.339668E3,1.5187266E4,4.9587285E3,0E0,4.7087734E3,0E0,0E0,0E0,0E0,0E0,0E0,0E0,0E0,0E0,0E0,0E0,0E0,0E0,0E0],"parents":[2147483647,0,0,1,1,2,2,3,3,4,4,5,5,6,6,7,7,8,8,9,9,10,10,11,11,12,12,14,14],"right_children":[2,4,6,8,10,12,14,16,18,20,22,24,26,-1,28,-1,-1,-1,-1,-1,-1,-1,-1,-1,-1,-1,-1,-1,-1],"split_conditions":[1.163E2,-1.94E2,9.76E-1,6E-2,-8.83E1,9.7E1,2.5E-1,2.4E1,2.111E2,5.5E-1,2E0,1.5E1,1.24E2,2.5635772E0,1.7E1,-2.3427866E-1,-6.297605E-1,-1.4535329E-1,-7.4536395E-1,8.4492765E-2,4.7606134E-1,3.0452362E-1,-6.316525E-2,1.8686664E-3,4.1730887E-1,-1.734461E-1,1.271209E-1,7.036533E-1,8.8465236E-2],"split_indices":[0,0,1,1,7,12,2,11,7,10,12,11,11,0,9,0,0,0,0,0,0,0,0,0,0,0,0,0,0],"split_type":[0,0,0,0,0,0,0,0,0,0,0,0,0,0,0,0,0,0,0,0,0,0,0,0,0,0,0,0,0],"sum_hessian":[8.914E3,6.555E3,2.359E3,3.188E3,3.367E3,2.172E3,1.87E2,7.91E2,2.397E3,5.53E2,2.814E3,1.167E3,1.005E3,3E0,1.84E2,6.36E2,1.55E2,2.358E3,3.9E1,4.36E2,1.17E2,1.42E2,2.672E3,2.94E2,8.73E2,1.63E2,8.42E2,1.44E2,4E1],"tree_param":{"num_deleted":"0","num_feature":"13","num_nodes":"29","size_leaf_vector":"1"}},{"base_weights":[-8.6746044E-2,-1.8297498E0,3.9489706E0,-4.4601E0,-2.8476316E-1,1.9564869E0,6.0488153E0,-5.0561705E0,1.0047027E0,1.5588619E0,-1.8361621E0,4.329745E0,8.6845535E-1,9.840282E-1,8.207411E0,-3.8380203E-1,-1.8566327E-1,7.94947E-2,-2.971683E-1,-8.927258E-2,2.1678698E-1,-1.579356E-1,5.830117E-2,2.319232E-2,2.8544912E-1,1.2504058E-2,1.9357686E-1,2.4628583E-2,1.2348335E0,4.7130075E-1,1.0503739E-1],"categories":[],"categories_nodes":[],"categories_segments":[],"categories_sizes":[],"default_left":[0,0,0,0,0,0,0,0,0,0,0,0,0,0,0,0,0,0,0,0,0,0,0,0,0,0,0,0,0,0,0],"id":30,"left_children":[1,3,5,7,9,11,13,15,17,19,21,23,25,27,29,-1,-1,-1,-1,-1,-1,-1,-1,-1,-1,-1,-1,-1,-1,-1,-1],"loss_changes":[6.3153855E4,2.5479107E4,1.1318184E4,7.5622695E3,1.1303504E4,3.5880518E3,1.4401395E4,7.3316523E3,9.405515E2,1.677961E4,8.524464E3,2.3274326E3,1.7724937E3,4.5910596E3,6.856246E3,0E0,0E0,0E0,0E0,0E0,0E0,0E0,0E0,0E0,0E0,0E0,0E0,0E0,0E0,0E0,0E0],"parents":[2147483647,0,0,1,1,2,2,3,3,4,4,5,5,6,6,7,7,8,8,9,9,10,10,11,11,12,12,13,13,14,14],"right_children":[2,4,6,8,10,12,14,16,18,20,22,24,26,28,30,-1,-1,-1,-1,-1,-1,-1,-1,-1,-1,-1,-1,-1,-1,-1,-1],"split_conditions":[5.357E-1,2.36E-1,8.684E-1,2.97E2,5.5E1,8E0,3.6E1,-2.3E1,4.286E-1,1.3E1,2.17E2,2.8E1,6E-1,2.352E2,2.78E2,-3.8380203E-1,-1.8566327E-1,7.94947E-2,-2.971683E-1,-8.927258E-2,2.1678698E-1,-1.579356E-1,5.830117E-2,2.319232E-2,2.8544912E-1,1.2504058E-2,1.9357686E-1,2.4628583E-2,1.2348335E0,4.7130075E-1,1.0503739E-1],"split_indices":[8,1,8,11,12,9,11,6,8,11,11,11,10,6,12,0,0,0,0,0,0,0,0,0,0,0,0,0,0,0,0],"split_type":[0,0,0,0,0,0,0,0,0,0,0,0,0,0,0,0,0,0,0,0,0,0,0,0,0,0,0,0,0,0,0],"sum_hessian":[8.976E3,6.269E3,2.707E3,2.319E3,3.95E3,1.39E3,1.317E3,2.091E3,2.28E2,1.805E3,2.145E3,4.36E2,9.54E2,3.94E2,9.23E2,7.07E2,1.384E3,2.11E2,1.7E1,8.19E2,9.86E2,1.489E3,6.56E2,1.15E2,3.21E2,7.92E2,1.62E2,3.87E2,7E0,7.69E2,1.54E2],"tree_param":{"num_deleted":"0","num_feature":"13","num_nodes":"31","size_leaf_vector":"1"}},{"base_weights":[-1.3564874E-1,-2.678367E0,2.9157715E0,-5.387275E0,-1.8040134E0,1.7514641E0,6.9159303E0,-8.652912E0,-2.8780582E0,-4.430975E0,-4.4665626E-1,-3.4446213E0,2.2849948E0,2.200471E0,1.0087105E1,-5.6115913E-1,-2.0851354E-1,-1.17906466E-1,-1.1431828E0,-4.3960506E-1,-1.7490909E-1,2.885776E-1,-4.5637812E-2,1.3267593E-1,-3.4740606E-1,7.475647E-2,2.7740636E-1,-3.2485387E-1,1.682027E-1,7.262963E-1,3.4395263E-1],"categories":[],"categories_nodes":[],"categories_segments":[],"categories_sizes":[],"default_left":[0,0,0,0,0,0,0,0,0,0,0,0,0,0,0,0,0,0,0,0,0,0,0,0,0,0,0,0,0,0,0],"id":31,"left_children":[1,3,5,7,9,11,13,15,17,19,21,23,25,27,29,-1,-1,-1,-1,-1,-1,-1,-1,-1,-1,-1,-1,-1,-1,-1,-1],"loss_changes":[6.945774E4,1.1555883E4,1.8938902E4,9.734379E3,1.3166244E4,8.74884E3,1.3690203E4,5.909867E3,6.960072E3,5.0868223E3,7.065543E3,6.2996978E3,7.363168E3,3.7663745E3,7.703586E3,0E0,0E0,0E0,0E0,0E0,0E0,0E0,0E0,0E0,0E0,0E0,0E0,0E0,0E0,0E0,0E0],"parents":[2147483647,0,0,1,1,2,2,3,3,4,4,5,5,6,6,7,7,8,8,9,9,10,10,11,11,12,12,13,13,14,14],"right_children":[2,4,6,8,10,12,14,16,18,20,22,24,26,28,30,-1,-1,-1,-1,-1,-1,-1,-1,-1,-1,-1,-1,-1,-1,-1,-1],"split_conditions":[-3.75E1,4.55E-2,9.545E-1,-2.84E1,8E0,2.059E-1,6.4E1,-3.317E2,1.913E2,2.4E1,1.1E1,5E1,5.5E-1,-1.033E2,7.3E1,-5.6115913E-1,-2.0851354E-1,-1.17906466E-1,-1.1431828E0,-4.3960506E-1,-1.7490909E-1,2.885776E-1,-4.5637812E-2,1.3267593E-1,-3.4740606E-1,7.475647E-2,2.7740636E-1,-3.2485387E-1,1.682027E-1,7.262963E-1,3.4395263E-1],"split_indices":[0,8,8,6,11,8,11,0,7,12,12,12,10,6,12,0,0,0,0,0,0,0,0,0,0,0,0,0,0,0,0],"split_type":[0,0,0,0,0,0,0,0,0,0,0,0,0,0,0,0,0,0,0,0,0,0,0,0,0,0,0,0,0,0,0],"sum_hessian":[8.95E3,4.882E3,4.068E3,1.19E3,3.692E3,3.152E3,9.16E2,5.16E2,6.74E2,1.257E3,2.435E3,2.93E2,2.859E3,3.69E2,5.47E2,3.27E2,1.89E2,6.58E2,1.6E1,2.2E2,1.037E3,1.69E2,2.266E3,1.07E2,1.86E2,2.303E3,5.56E2,4.3E1,3.26E2,2.28E2,3.19E2],"tree_param":{"num_deleted":"0","num_feature":"13","num_nodes":"31","size_leaf_vector":"1"}},{"base_weights":[1.3662054E-1,-1.9734229E0,3.2403095E0,-4.1502404E0,-6.1969966E-1,2.077088E0,6.5975165E0,-3.394566E0,-9.767654E0,1.1821734E1,-8.004882E-1,-2.621202E0,2.7074132E0,7.8700666E0,1.859615E0,6.428163E-1,-1.8248622E-1,-1.1024112E0,-3.0517447E-1,2.0929866E0,4.0270105E-1,1.7163974E-1,-6.5386765E-2,-5.1315963E-1,-3.086394E-2,8.793148E-2,3.3452624E-1,5.091199E-1,2.4388483E-1,2.709443E-1,-2.2916451E-1],"categories":[],"categories_nodes":[],"categories_segments":[],"categories_sizes":[],"default_left":[0,0,0,0,0,0,0,0,0,0,0,0,0,0,0,0,0,0,0,0,0,0,0,0,0,0,0,0,0,0,0],"id":32,"left_children":[1,3,5,7,9,11,13,15,17,19,21,23,25,27,29,-1,-1,-1,-1,-1,-1,-1,-1,-1,-1,-1,-1,-1,-1,-1,-1],"loss_changes":[5.844894E4,1.5653822E4,1.4091789E4,8.613777E3,7.380316E3,7.955628E3,5.586508E3,7.4982754E3,1.0709955E4,4.9820664E3,6.9424834E3,4.863504E3,8.933391E3,5.0153047E3,4.5653804E3,0E0,0E0,0E0,0E0,0E0,0E0,0E0,0E0,0E0,0E0,0E0,0E0,0E0,0E0,0E0,0E0],"parents":[2147483647,0,0,1,1,2,2,3,3,4,4,5,5,6,6,7,7,8,8,9,9,10,10,11,11,12,12,13,13,14,14],"right_children":[2,4,6,8,10,12,14,16,18,20,22,24,26,28,30,-1,-1,-1,-1,-1,-1,-1,-1,-1,-1,-1,-1,-1,-1,-1,-1],"split_conditions":[-2E-1,-3.317E2,9.167E-1,9.75E1,1E0,3.333E-1,5.38E1,1.1E1,6.111E-1,-2.271E2,-1.027E2,2.778E-1,5.5E-1,6.3E1,5.5E-1,6.428163E-1,-1.8248622E-1,-1.1024112E0,-3.0517447E-1,2.0929866E0,4.0270105E-1,1.7163974E-1,-6.5386765E-2,-5.1315963E-1,-3.086394E-2,8.793148E-2,3.3452624E-1,5.091199E-1,2.4388483E-1,2.709443E-1,-2.2916451E-1],"split_indices":[0,0,8,7,12,8,7,12,5,0,7,5,10,12,5,0,0,0,0,0,0,0,0,0,0,0,0,0,0,0,0],"split_type":[0,0,0,0,0,0,0,0,0,0,0,0,0,0,0,0,0,0,0,0,0,0,0,0,0,0,0,0,0,0,0],"sum_hessian":[8.923E3,5.312E3,3.611E3,2.036E3,3.276E3,2.683E3,9.28E2,1.796E3,2.4E2,4.6E1,3.23E3,3.17E2,2.366E3,7.31E2,1.97E2,2.7E1,1.769E3,5.4E1,1.86E2,4E0,4.2E1,3.45E2,2.885E3,6.5E1,2.52E2,1.912E3,4.54E2,4.11E2,3.2E2,1.27E2,7E1],"tree_param":{"num_deleted":"0","num_feature":"13","num_nodes":"31","size_leaf_vector":"1"}},{"base_weights":[5.0311093E-3,-1.2882164E0,4.726901E0,-3.2732115E0,3.176729E-1,4.2892303E0,2.166112E1,-5.5652514E0,-2.2244158E0,1.9675336E0,-8.0893683E-1,-2.001798E1,4.5365534E0,5.5016693E1,1.6503107E1,-8.492228E-2,-4.2165747E-1,3.3707651E-1,-1.2761045E-1,-1.0043909E-1,1.898329E-1,4.051561E-1,-6.0269028E-2,-6.2698597E-1,-2.7861068E0,3.2989743E-1,8.532771E-2,1.0103984E0,3.3684533E0,9.621599E-2,1.0727215E0],"categories":[],"categories_nodes":[],"categories_segments":[],"categories_sizes":[],"default_left":[0,0,0,0,0,0,0,0,0,0,0,0,0,0,0,0,0,0,0,0,0,0,0,0,0,0,0,0,0,0,0],"id":33,"left_children":[1,3,5,7,9,11,13,15,17,19,21,23,25,27,29,-1,-1,-1,-1,-1,-1,-1,-1,-1,-1,-1,-1,-1,-1,-1,-1],"loss_changes":[5.439099E4,2.2289312E4,1.4100336E4,7.5045547E3,7.1875156E3,1.1320734E4,7.350381E3,1.0864576E4,6.3271885E3,1.1419238E4,8.1289014E3,4.3743564E3,1.0781172E4,1.2184297E3,3.0626387E3,0E0,0E0,0E0,0E0,0E0,0E0,0E0,0E0,0E0,0E0,0E0,0E0,0E0,0E0,0E0,0E0],"parents":[2147483647,0,0,1,1,2,2,3,3,4,4,5,5,6,6,7,7,8,8,9,9,10,10,11,11,12,12,13,13,14,14],"right_children":[2,4,6,8,10,12,14,16,18,20,22,24,26,28,30,-1,-1,-1,-1,-1,-1,-1,-1,-1,-1,-1,-1,-1,-1,-1,-1],"split_conditions":[7.98E-1,-1.97E2,9.92E-1,5.88E-2,4.167E-1,5E-2,3.62E2,1.3E1,8E0,1.5E1,2E0,4.2E1,1.35E2,1E-1,1E-1,-8.492228E-2,-4.2165747E-1,3.3707651E-1,-1.2761045E-1,-1.0043909E-1,1.898329E-1,4.051561E-1,-6.0269028E-2,-6.2698597E-1,-2.7861068E0,3.2989743E-1,8.532771E-2,1.0103984E0,3.3684533E0,9.621599E-2,1.0727215E0],"split_indices":[1,0,1,8,3,3,11,11,12,11,12,12,12,4,4,0,0,0,0,0,0,0,0,0,0,0,0,0,0,0,0],"split_type":[0,0,0,0,0,0,0,0,0,0,0,0,0,0,0,0,0,0,0,0,0,0,0,0,0,0,0,0,0,0,0],"sum_hessian":[8.905E3,6.991E3,1.914E3,3.126E3,3.865E3,1.867E3,4.7E1,9.8E2,2.146E3,1.568E3,2.297E3,1.8E1,1.849E3,5E0,4.2E1,4.18E2,5.62E2,7.5E1,2.071E3,4.94E2,1.074E3,9.7E1,2.2E3,1.6E1,2E0,1.069E3,7.8E2,2E0,3E0,1.1E1,3.1E1],"tree_param":{"num_deleted":"0","num_feature":"13","num_nodes":"31","size_leaf_vector":"1"}},{"base_weights":[5.897954E-3,-2.7949698E0,2.10876E0,2.088849E1,-2.9320345E0,1.3192707E0,7.266673E0,1.5029792E1,2.6491823E0,-3.3281941E0,1.276738E0,-1.4364104E0,2.1787415E0,6.396133E0,1.8706917E1,9.457098E-1,-2.6181874E-1,-2.5458533E-1,-1.15511216E-1,-6.7388795E-2,1.8317826E-1,-3.038228E-1,4.622174E-3,1.6374105E-1,6.056698E-3,2.4071963E-1,7.01166E-1,1.0956129E-1,1.2478646E0],"categories":[],"categories_nodes":[],"categories_segments":[],"categories_sizes":[],"default_left":[0,0,0,0,0,0,0,0,0,0,0,0,0,0,0,0,0,0,0,0,0,0,0,0,0,0,0,0,0],"id":34,"left_children":[1,3,5,7,9,11,13,15,-1,17,19,21,23,25,27,-1,-1,-1,-1,-1,-1,-1,-1,-1,-1,-1,-1,-1,-1],"loss_changes":[5.2219312E4,1.2403158E4,2.0611615E4,3.340455E3,6.3084824E3,1.0407631E4,6.572926E3,1.673481E3,0E0,6.192453E3,2.0470867E3,7.4137397E3,7.5526064E3,7.4846953E3,4.797088E3,0E0,0E0,0E0,0E0,0E0,0E0,0E0,0E0,0E0,0E0,0E0,0E0,0E0,0E0],"parents":[2147483647,0,0,1,1,2,2,3,3,4,4,5,5,6,6,7,7,9,9,10,10,11,11,12,12,13,13,14,14],"right_children":[2,4,6,8,10,12,14,16,-1,18,20,22,24,26,28,-1,-1,-1,-1,-1,-1,-1,-1,-1,-1,-1,-1,-1,-1],"split_conditions":[4.24E-1,1E0,9.25E-1,5E-1,5.25E-1,4.583E-1,9.92E-1,5.5E-1,2.6491823E0,6.111E-1,7.5E-1,3.125E-1,1.19E2,9.24E1,1E-1,9.457098E-1,-2.6181874E-1,-2.5458533E-1,-1.15511216E-1,-6.7388795E-2,1.8317826E-1,-3.038228E-1,4.622174E-3,1.6374105E-1,6.056698E-3,2.4071963E-1,7.01166E-1,1.0956129E-1,1.2478646E0],"split_indices":[1,12,1,2,8,8,1,10,0,5,4,5,12,6,4,0,0,0,0,0,0,0,0,0,0,0,0,0,0],"split_type":[0,0,0,0,0,0,0,0,0,0,0,0,0,0,0,0,0,0,0,0,0,0,0,0,0,0,0,0,0],"sum_hessian":[8.864E3,3.801E3,5.063E3,2.1E1,3.78E3,4.392E3,6.71E2,1.9E1,2E0,3.455E3,3.25E2,1.044E3,3.348E3,6.25E2,4.6E1,1.6E1,3E0,1.263E3,2.192E3,1.55E2,1.7E2,2.58E2,7.86E2,2.184E3,1.164E3,5.19E2,1.06E2,1.3E1,3.3E1],"tree_param":{"num_deleted":"0","num_feature":"13","num_nodes":"29","size_leaf_vector":"1"}},{"base_weights":[6.0771994E-2,-1.1105374E0,4.323945E0,-4.1227293E0,-7.608491E-2,4.1206627E0,2.2703857E1,-4.625123E0,1.1802629E0,-2.6663065E0,7.0735246E-1,3.503894E0,1.0174467E1,3.6264767E1,4.160381E0,-1.8808846E-1,-3.8978007E-1,4.9755594E-1,-1.2361523E-2,-4.9262017E-2,-2.747122E-1,-2.5055576E-2,1.3072573E-1,1.5624303E-1,6.472204E-1,7.458182E-1,1.08331576E-1,2.0204296E0,-2.3293291E-1,8.738722E-1,-3.8152844E-1],"categories":[],"categories_nodes":[],"categories_segments":[],"categories_sizes":[],"default_left":[0,0,0,0,0,0,0,0,0,0,0,0,0,0,0,0,0,0,0,0,0,0,0,0,0,0,0,0,0,0,0],"id":35,"left_children":[1,3,5,7,9,11,13,15,17,19,21,23,25,27,29,-1,-1,-1,-1,-1,-1,-1,-1,-1,-1,-1,-1,-1,-1,-1,-1],"loss_changes":[4.4946254E4,2.2001549E4,7.1548906E3,4.8143203E3,1.0669793E4,7.13324E3,5.129921E3,4.4843906E3,1.9681532E3,5.799159E3,9.305531E3,6.2000547E3,6.688783E3,2.223204E3,1.7035709E3,0E0,0E0,0E0,0E0,0E0,0E0,0E0,0E0,0E0,0E0,0E0,0E0,0E0,0E0,0E0,0E0],"parents":[2147483647,0,0,1,1,2,2,3,3,4,4,5,5,6,6,7,7,8,8,9,9,10,10,11,11,12,12,13,13,14,14],"right_children":[2,4,6,8,10,12,14,16,18,20,22,24,26,28,30,-1,-1,-1,-1,-1,-1,-1,-1,-1,-1,-1,-1,-1,-1,-1,-1],"split_conditions":[6.923E-1,-3.623E2,2.352E2,3.22E2,2.778E-1,1E0,8.333E-1,2.9E1,5.66E2,6E-1,2.19E1,6.398E2,1.92E2,7.5E-1,2.643E2,-1.8808846E-1,-3.8978007E-1,4.9755594E-1,-1.2361523E-2,-4.9262017E-2,-2.747122E-1,-2.5055576E-2,1.3072573E-1,1.5624303E-1,6.472204E-1,7.458182E-1,1.08331576E-1,2.0204296E0,-2.3293291E-1,8.738722E-1,-3.8152844E-1],"split_indices":[8,0,6,11,8,10,2,11,12,2,6,0,12,10,6,0,0,0,0,0,0,0,0,0,0,0,0,0,0,0,0],"split_type":[0,0,0,0,0,0,0,0,0,0,0,0,0,0,0,0,0,0,0,0,0,0,0,0,0,0,0,0,0,0,0],"sum_hessian":[8.999E3,7.06E3,1.939E3,1.804E3,5.256E3,1.919E3,2E1,1.648E3,1.56E2,1.22E3,4.036E3,1.743E3,1.76E2,1.1E1,9E0,1.297E3,3.51E2,2.1E1,1.35E2,7.66E2,4.54E2,2.471E3,1.565E3,1.677E3,6.6E1,1.1E2,6.6E1,1E1,1E0,4E0,5E0],"tree_param":{"num_deleted":"0","num_feature":"13","num_nodes":"31","size_leaf_vector":"1"}},{"base_weights":[5.7637047E-2,-1.0882905E0,4.1849537E0,-3.383999E0,1.526132E-1,3.9424827E0,2.189224E1,-7.6714706E0,-2.8213143E0,2.0139747E0,-1.0412436E0,3.3447974E0,1.1442814E1,2.6907097E1,-6.208124E-1,-5.839941E-1,-3.6342442E-2,1.3101028E0,-1.4906617E-1,-4.3562144E-2,2.1420458E-1,-1.3017239E-1,6.233252E-2,1.3827594E-1,4.692544E-1,2.1547453E0,5.102052E-1,4.8521253E-1,1.8636454E0],"categories":[],"categories_nodes":[],"categories_segments":[],"categories_sizes":[],"default_left":[0,0,0,0,0,0,0,0,0,0,0,0,0,0,0,0,0,0,0,0,0,0,0,0,0,0,0,0,0],"id":36,"left_children":[1,3,5,7,9,11,13,15,17,19,21,23,25,27,-1,-1,-1,-1,-1,-1,-1,-1,-1,-1,-1,-1,-1,-1,-1],"loss_changes":[4.2244664E4,1.991615E4,8.247375E3,5.896207E3,1.0088658E4,8.550844E3,4.8074404E3,7.8971895E3,1.0155588E4,1.1623044E4,9.889364E3,6.188287E3,5.088547E3,3.7396895E3,0E0,0E0,0E0,0E0,0E0,0E0,0E0,0E0,0E0,0E0,0E0,0E0,0E0,0E0,0E0],"parents":[2147483647,0,0,1,1,2,2,3,3,4,4,5,5,6,6,7,7,8,8,9,9,10,10,11,11,12,12,13,13],"right_children":[2,4,6,8,10,12,14,16,18,20,22,24,26,28,-1,-1,-1,-1,-1,-1,-1,-1,-1,-1,-1,-1,-1,-1,-1],"split_conditions":[6.875E-1,-2.645E2,2.352E2,-8.66E1,5E1,9.76E-1,7.5E-1,7.778E-1,3E0,1.3E1,1.79E2,1E0,2.5E-1,1.011E2,-6.208124E-1,-5.839941E-1,-3.6342442E-2,1.3101028E0,-1.4906617E-1,-4.3562144E-2,2.1420458E-1,-1.3017239E-1,6.233252E-2,1.3827594E-1,4.692544E-1,2.1547453E0,5.102052E-1,4.8521253E-1,1.8636454E0],"split_indices":[8,0,6,6,12,1,10,5,12,11,11,10,2,0,0,0,0,0,0,0,0,0,0,0,0,0,0,0,0],"split_type":[0,0,0,0,0,0,0,0,0,0,0,0,0,0,0,0,0,0,0,0,0,0,0,0,0,0,0,0,0],"sum_hessian":[8.93E3,6.99E3,1.94E3,2.452E3,4.538E3,1.915E3,2.5E1,2.83E2,2.169E3,1.773E3,2.765E3,1.775E3,1.4E2,2.2E1,3E0,1.79E2,1.04E2,1.1E1,2.158E3,7.81E2,9.92E2,1.643E3,1.122E3,1.621E3,1.54E2,4E0,1.36E2,9E0,1.3E1],"tree_param":{"num_deleted":"0","num_feature":"13","num_nodes":"29","size_leaf_vector":"1"}},{"base_weights":[-1.1421003E-1,-1.80585E0,2.847498E0,-4.3895807E0,-1.0316175E0,1.5221199E0,6.540387E0,-2.0793748E0,-7.27575E0,-3.0428562E0,3.5753065E-1,-2.3965864E0,1.9851276E0,3.8452077E0,9.624465E0,-2.3568669E-1,2.1001501E-2,-6.8871814E-1,-3.0759698E-1,-1.4444394E-1,-9.952845E-1,4.0036806E-1,-9.519542E-3,-2.3597006E-1,4.528574E-1,2.179623E-1,2.854305E-2,1.180539E0,1.5390149E-1,8.165061E-1,2.338465E-1],"categories":[],"categories_nodes":[],"categories_segments":[],"categories_sizes":[],"default_left":[0,0,0,0,0,0,0,0,0,0,0,0,0,0,0,0,0,0,0,0,0,0,0,0,0,0,0,0,0,0,0],"id":37,"left_children":[1,3,5,7,9,11,13,15,17,19,21,23,25,27,29,-1,-1,-1,-1,-1,-1,-1,-1,-1,-1,-1,-1,-1,-1,-1,-1],"loss_changes":[4.4735703E4,1.1363793E4,1.587751E4,8.719484E3,1.2221643E4,4.341153E3,7.0865E3,4.8019556E3,4.1657324E3,4.5824355E3,1.0849145E4,6.7737866E3,7.1761387E3,6.8874717E3,1.3161043E4,0E0,0E0,0E0,0E0,0E0,0E0,0E0,0E0,0E0,0E0,0E0,0E0,0E0,0E0,0E0,0E0],"parents":[2147483647,0,0,1,1,2,2,3,3,4,4,5,5,6,6,7,7,8,8,9,9,10,10,11,11,12,12,13,13,14,14],"right_children":[2,4,6,8,10,12,14,16,18,20,22,24,26,28,30,-1,-1,-1,-1,-1,-1,-1,-1,-1,-1,-1,-1,-1,-1,-1,-1],"split_conditions":[2.84E1,4.55E-2,9.545E-1,2.4E1,1.5E1,7E0,1.24E2,1.429E-1,-5.591E2,2.111E2,1.1E1,8.889E-1,5.556E-1,-2.426E2,1.21E2,-2.3568669E-1,2.1001501E-2,-6.8871814E-1,-3.0759698E-1,-1.4444394E-1,-9.952845E-1,4.0036806E-1,-9.519542E-3,-2.3597006E-1,4.528574E-1,2.179623E-1,2.854305E-2,1.180539E0,1.5390149E-1,8.165061E-1,2.338465E-1],"split_indices":[0,8,8,11,11,11,11,3,0,7,12,3,3,7,12,0,0,0,0,0,0,0,0,0,0,0,0,0,0,0,0],"split_type":[0,0,0,0,0,0,0,0,0,0,0,0,0,0,0,0,0,0,0,0,0,0,0,0,0,0,0,0,0,0,0],"sum_hessian":[8.927E3,5.682E3,3.245E3,1.309E3,4.373E3,2.389E3,8.56E2,7.28E2,5.81E2,1.786E3,2.587E3,2.52E2,2.137E3,4.58E2,3.98E2,3.54E2,3.74E2,8.4E1,4.97E2,1.771E3,1.5E1,1.72E2,2.415E3,2.1E2,4.2E1,7.97E2,1.34E3,1.6E1,4.42E2,1.68E2,2.3E2],"tree_param":{"num_deleted":"0","num_feature":"13","num_nodes":"31","size_leaf_vector":"1"}},{"base_weights":[1.9094056E-2,-6.765686E-1,5.957078E0,-2.7785718E0,4.6498537E-1,-8.896141E0,6.6293464E0,2.8639769E1,-2.855877E0,-2.407602E0,1.0320979E0,-2.560945E0,-3.1136734E1,9.80848E0,2.7430694E0,-1.7479517E-1,2.1096609E0,-3.3394402E-1,-1.1642387E-1,-1.0802411E-1,-2.1992953E0,2.5089407E-1,1.3693461E-2,-5.575952E-1,6.7012787E-1,-1.2010819E-1,-1.9501723E0,6.723475E-1,1.5600109E-1,1.6558062E0,1.1787563E-1],"categories":[],"categories_nodes":[],"categories_segments":[],"categories_sizes":[],"default_left":[0,0,0,0,0,0,0,0,0,0,0,0,0,0,0,0,0,0,0,0,0,0,0,0,0,0,0,0,0,0,0],"id":38,"left_children":[1,3,5,7,9,11,13,15,17,19,21,23,25,27,29,-1,-1,-1,-1,-1,-1,-1,-1,-1,-1,-1,-1,-1,-1,-1,-1],"loss_changes":[3.69089E4,1.9192895E4,9.41525E3,6.9188516E3,8.447638E3,5.6970986E3,1.1055523E4,3.1963472E3,5.6480977E3,8.689949E3,1.3084473E4,4.6751426E3,1.9407275E3,1.195557E4,4.6646978E3,0E0,0E0,0E0,0E0,0E0,0E0,0E0,0E0,0E0,0E0,0E0,0E0,0E0,0E0,0E0,0E0],"parents":[2147483647,0,0,1,1,2,2,3,3,4,4,5,5,6,6,7,7,8,8,9,9,10,10,11,11,12,12,13,13,14,14],"right_children":[2,4,6,8,10,12,14,16,18,20,22,24,26,28,30,-1,-1,-1,-1,-1,-1,-1,-1,-1,-1,-1,-1,-1,-1,-1,-1],"split_conditions":[3.002E2,2.9E-1,7E0,1E0,7E0,4.2E1,1.58E2,-7.81E1,-6.819E2,2.826E2,1.8E1,1.9E1,-8.87E1,7.778E-1,1.9E1,-1.7479517E-1,2.1096609E0,-3.3394402E-1,-1.1642387E-1,-1.0802411E-1,-2.1992953E0,2.5089407E-1,1.3693461E-2,-5.575952E-1,6.7012787E-1,-1.2010819E-1,-1.9501723E0,6.723475E-1,1.5600109E-1,1.6558062E0,1.1787563E-1],"split_indices":[0,1,11,12,11,12,12,6,0,0,12,12,6,3,11,0,0,0,0,0,0,0,0,0,0,0,0,0,0,0,0],"split_type":[0,0,0,0,0,0,0,0,0,0,0,0,0,0,0,0,0,0,0,0,0,0,0,0,0,0,0,0,0,0,0],"sum_hessian":[8.933E3,7.997E3,9.36E2,2.814E3,5.183E3,4E1,8.96E2,6E0,2.808E3,8.54E2,4.329E3,3.2E1,8E0,4.92E2,4.04E2,2E0,4E0,3.39E2,2.469E3,8.5E2,4E0,6.91E2,3.638E3,2.1E1,1.1E1,2E0,6E0,3.18E2,1.74E2,4E0,4E2],"tree_param":{"num_deleted":"0","num_feature":"13","num_nodes":"31","size_leaf_vector":"1"}},{"base_weights":[-2.2436239E-2,-1.325692E0,2.4282863E0,-4.3153005E0,-8.0078E-1,2.238739E0,1.7493261E1,-8.729979E0,-2.9683735E0,1.034145E1,-9.4767666E-1,3.3680124E0,-1.592041E-1,2.4835777E1,-2.7870753E0,-7.6035047E-1,-1.6706662E-1,-1.1200406E-1,-8.3910936E-1,-4.2453405E-1,7.89213E-1,-1.3909885E-1,-1.059937E-2,2.4242115E-1,3.8862236E-2,-4.1112342E-1,4.449304E-2,7.2484607E-1,2.2525742E0,-6.312846E-1,5.7722014E-1],"categories":[],"categories_nodes":[],"categories_segments":[],"categories_sizes":[],"default_left":[0,0,0,0,0,0,0,0,0,0,0,0,0,0,0,0,0,0,0,0,0,0,0,0,0,0,0,0,0,0,0],"id":39,"left_children":[1,3,5,7,9,11,13,15,17,19,21,23,25,27,29,-1,-1,-1,-1,-1,-1,-1,-1,-1,-1,-1,-1,-1,-1,-1,-1],"loss_changes":[2.8243846E4,9.056007E3,8.727307E3,5.099754E3,8.049547E3,8.213699E3,5.727748E3,6.964576E3,6.622454E3,6.694001E3,6.5430146E3,7.904826E3,8.229355E3,5.1990957E3,1.6967772E3,0E0,0E0,0E0,0E0,0E0,0E0,0E0,0E0,0E0,0E0,0E0,0E0,0E0,0E0,0E0,0E0],"parents":[2147483647,0,0,1,1,2,2,3,3,4,4,5,5,6,6,7,7,8,8,9,9,10,10,11,11,12,12,13,13,14,14],"right_children":[2,4,6,8,10,12,14,16,18,20,22,24,26,28,30,-1,-1,-1,-1,-1,-1,-1,-1,-1,-1,-1,-1,-1,-1,-1,-1],"split_conditions":[4.53E1,-5.383E2,2.352E2,7.143E-1,5E-2,2.02E1,4.84E1,-1.79E1,1.102E2,5E-2,5E-1,1.35E2,2.778E-1,-5.4E0,6.9E1,-7.6035047E-1,-1.6706662E-1,-1.1200406E-1,-8.3910936E-1,-4.2453405E-1,7.89213E-1,-1.3909885E-1,-1.059937E-2,2.4242115E-1,3.8862236E-2,-4.1112342E-1,4.449304E-2,7.2484607E-1,2.2525742E0,-6.312846E-1,5.7722014E-1],"split_indices":[0,0,6,5,5,7,7,6,7,3,4,12,5,7,12,0,0,0,0,0,0,0,0,0,0,0,0,0,0,0,0],"split_type":[0,0,0,0,0,0,0,0,0,0,0,0,0,0,0,0,0,0,0,0,0,0,0,0,0,0,0,0,0,0,0],"sum_hessian":[8.841E3,5.772E3,3.069E3,8.61E2,4.911E3,3.032E3,3.7E1,2E2,6.61E2,6.3E1,4.848E3,2.061E3,9.71E2,2.7E1,1E1,9E1,1.1E2,6.29E2,3.2E1,1.4E1,4.9E1,1.387E3,3.461E3,1.311E3,7.5E2,1.11E2,8.6E2,1.9E1,8E0,6E0,4E0],"tree_param":{"num_deleted":"0","num_feature":"13","num_nodes":"31","size_leaf_vector":"1"}},{"base_weights":[7.266537E-3,-1.4050722E0,2.9084013E0,-4.9184713E0,-8.6701804E-1,1.5226868E0,5.546743E0,-3.4878368E0,-1.0811236E1,-2.9461646E0,-3.3191526E-1,-1.089265E1,1.8388642E0,7.1133223E0,8.743995E-1,-2.8125355E-1,-8.709693E-2,-9.2200387E-1,-1.666668E-1,-8.0369914E-1,-1.2956278E-1,-1.0269453E-1,3.6703542E-2,-2.4988607E-1,-1.2425961E0,-1.8283908E-1,1.2660615E-1,-1.2267349E-1,4.115828E-1,-1.3275498E-1,3.5783055E-1],"categories":[],"categories_nodes":[],"categories_segments":[],"categories_sizes":[],"default_left":[0,0,0,0,0,0,0,0,0,0,0,0,0,0,0,0,0,0,0,0,0,0,0,0,0,0,0,0,0,0,0],"id":40,"left_children":[1,3,5,7,9,11,13,15,17,19,21,23,25,27,29,-1,-1,-1,-1,-1,-1,-1,-1,-1,-1,-1,-1,-1,-1,-1,-1],"loss_changes":[3.6753535E4,1.1400514E4,1.0729189E4,6.715033E3,5.8210327E3,7.584369E3,7.3938926E3,2.4006807E3,8.837977E3,4.948331E3,7.643116E3,3.8256655E3,7.171882E3,8.1192383E3,5.6731323E3,0E0,0E0,0E0,0E0,0E0,0E0,0E0,0E0,0E0,0E0,0E0,0E0,0E0,0E0,0E0,0E0],"parents":[2147483647,0,0,1,1,2,2,3,3,4,4,5,5,6,6,7,7,8,8,9,9,10,10,11,11,12,12,13,13,14,14],"right_children":[2,4,6,8,10,12,14,16,18,20,22,24,26,28,30,-1,-1,-1,-1,-1,-1,-1,-1,-1,-1,-1,-1,-1,-1,-1,-1],"split_conditions":[6E1,-5.52E2,8.333E-1,2.7E1,1.25E-1,5E-2,7.778E-1,1E0,1.7E2,-2.086E2,1.7E1,1.808E2,3.333E-1,1.6E1,4.79E2,-2.8125355E-1,-8.709693E-2,-9.2200387E-1,-1.666668E-1,-8.0369914E-1,-1.2956278E-1,-1.0269453E-1,3.6703542E-2,-2.4988607E-1,-1.2425961E0,-1.8283908E-1,1.2660615E-1,-1.2267349E-1,4.115828E-1,-1.3275498E-1,3.5783055E-1],"split_indices":[0,0,8,11,8,3,3,9,11,6,11,0,8,11,0,0,0,0,0,0,0,0,0,0,0,0,0,0,0,0,0],"split_type":[0,0,0,0,0,0,0,0,0,0,0,0,0,0,0,0,0,0,0,0,0,0,0,0,0,0,0,0,0,0,0],"sum_hessian":[8.968E3,6.032E3,2.936E3,8E2,5.232E3,1.926E3,1.01E3,6.45E2,1.55E2,1.07E3,4.162E3,4.7E1,1.879E3,7.56E2,2.54E2,2.89E2,3.56E2,7.6E1,7.9E1,2.7E1,1.043E3,1.591E3,2.571E3,3.4E1,1.3E1,2.1E2,1.669E3,7.9E1,6.77E2,1.63E2,9.1E1],"tree_param":{"num_deleted":"0","num_feature":"13","num_nodes":"31","size_leaf_vector":"1"}},{"base_weights":[1.2917146E-1,-2.1014328E0,1.4486217E0,-1.6080717E0,-6.1103177E0,1.3224484E0,1.9019901E1,7.211805E0,-1.9283442E0,-1.3974868E1,-3.3988707E0,6.13864E-1,3.890338E0,4.5586105E1,1.4801819E1,6.332021E-1,-2.7257392E-1,-2.5121722E-1,-6.709064E-2,-5.76838E-1,-1.921883E0,-3.7396106E-1,7.297272E-2,9.593673E-2,-8.487991E-3,8.766767E-1,1.7098872E-1,5.7288426E-1,3.2259579E0,4.2723522E-1,1.2607406E0],"categories":[],"categories_nodes":[],"categories_segments":[],"categories_sizes":[],"default_left":[0,0,0,0,0,0,0,0,0,0,0,0,0,0,0,0,0,0,0,0,0,0,0,0,0,0,0,0,0,0,0],"id":41,"left_children":[1,3,5,7,9,11,13,15,17,19,21,23,25,27,29,-1,-1,-1,-1,-1,-1,-1,-1,-1,-1,-1,-1,-1,-1,-1,-1],"loss_changes":[2.6329713E4,6.56645E3,1.2436757E4,8.380858E3,7.714549E3,1.0154431E4,3.80758E3,7.2495303E3,5.18492E3,5.1033438E3,5.4029536E3,4.4749062E3,7.688965E3,2.4915352E3,2.1301372E3,0E0,0E0,0E0,0E0,0E0,0E0,0E0,0E0,0E0,0E0,0E0,0E0,0E0,0E0,0E0,0E0],"parents":[2147483647,0,0,1,1,2,2,3,3,4,4,5,5,6,6,7,7,8,8,9,9,10,10,11,11,12,12,13,13,14,14],"right_children":[2,4,6,8,10,12,14,16,18,20,22,24,26,28,30,-1,-1,-1,-1,-1,-1,-1,-1,-1,-1,-1,-1,-1,-1,-1,-1],"split_conditions":[-1.761E2,1.102E2,9.92E-1,9E0,2.5E-2,8.421E-1,6.111E-1,7E-1,5E-1,6E0,1E0,5E1,-2.078E2,5.25E-1,4.167E-1,6.332021E-1,-2.7257392E-1,-2.5121722E-1,-6.709064E-2,-5.76838E-1,-1.921883E0,-3.7396106E-1,7.297272E-2,9.593673E-2,-8.487991E-3,8.766767E-1,1.7098872E-1,5.7288426E-1,3.2259579E0,4.2723522E-1,1.2607406E0],"split_indices":[0,7,1,12,8,8,3,4,4,9,9,12,7,8,5,0,0,0,0,0,0,0,0,0,0,0,0,0,0,0,0],"split_type":[0,0,0,0,0,0,0,0,0,0,0,0,0,0,0,0,0,0,0,0,0,0,0,0,0,0,0,0,0,0,0],"sum_hessian":[8.944E3,3.324E3,5.62E3,2.961E3,3.63E2,5.581E3,3.9E1,1.03E2,2.858E3,9.2E1,2.71E2,4.375E3,1.206E3,4E0,3.5E1,7.2E1,3.1E1,4.54E2,2.404E3,8.5E1,7E0,1.47E2,1.24E2,1.641E3,2.734E3,3.9E1,1.167E3,2E0,2E0,2.3E1,1.2E1],"tree_param":{"num_deleted":"0","num_feature":"13","num_nodes":"31","size_leaf_vector":"1"}},{"base_weights":[6.5614626E-2,-9.3026394E-1,3.2597165E0,-3.2401283E0,-1.19013414E-1,7.1763053E0,2.5214772E0,-2.6138983E0,-8.965548E0,8.100696E0,-3.2122278E-1,5.6428423E0,1.8072128E1,2.2518752E0,1.8787289E1,6.89557E-1,-1.4365649E-1,-1.7612069E0,-3.8269827E-1,1.4214447E-1,7.179187E-1,-9.198201E-3,-4.5910135E-1,3.7164137E-1,-1.2582943E-1,7.1359557E-1,2.4828079E0,-4.0335435E-2,1.498008E-1,2.6146822E0,5.667264E-1],"categories":[],"categories_nodes":[],"categories_segments":[],"categories_sizes":[],"default_left":[0,0,0,0,0,0,0,0,0,0,0,0,0,0,0,0,0,0,0,0,0,0,0,0,0,0,0,0,0,0,0],"id":42,"left_children":[1,3,5,7,9,11,13,15,17,19,21,23,25,27,29,-1,-1,-1,-1,-1,-1,-1,-1,-1,-1,-1,-1,-1,-1,-1,-1],"loss_changes":[2.8399262E4,1.2753232E4,6.117414E3,6.3191875E3,8.376272E3,5.5120234E3,7.7942188E3,6.8269404E3,5.723009E3,3.9402812E3,5.9796963E3,4.3418623E3,4.212385E3,4.0059307E3,6.649007E3,0E0,0E0,0E0,0E0,0E0,0E0,0E0,0E0,0E0,0E0,0E0,0E0,0E0,0E0,0E0,0E0],"parents":[2147483647,0,0,1,1,2,2,3,3,4,4,5,5,6,6,7,7,8,8,9,9,10,10,11,11,12,12,13,13,14,14],"right_children":[2,4,6,8,10,12,14,16,18,20,22,24,26,28,30,-1,-1,-1,-1,-1,-1,-1,-1,-1,-1,-1,-1,-1,-1,-1,-1],"split_conditions":[6.562E-1,-3.623E2,-1.071E2,9.75E1,1E0,-1.161E2,9.92E-1,1.1E1,-8.604E2,5E0,2.111E2,1.58E2,4.653E2,2E0,3.62E2,6.89557E-1,-1.4365649E-1,-1.7612069E0,-3.8269827E-1,1.4214447E-1,7.179187E-1,-9.198201E-3,-4.5910135E-1,3.7164137E-1,-1.2582943E-1,7.1359557E-1,2.4828079E0,-4.0335435E-2,1.498008E-1,2.6146822E0,5.667264E-1],"split_indices":[8,0,7,7,12,7,1,12,0,11,7,12,0,9,11,0,0,0,0,0,0,0,0,0,0,0,0,0,0,0,0],"split_type":[0,0,0,0,0,0,0,0,0,0,0,0,0,0,0,0,0,0,0,0,0,0,0,0,0,0,0,0,0,0,0],"sum_hessian":[8.926E3,6.805E3,2.121E3,1.768E3,5.037E3,3.35E2,1.786E3,1.595E3,1.73E2,1.2E2,4.917E3,2.95E2,4E1,1.758E3,2.8E1,2.4E1,1.571E3,7E0,1.66E2,6.6E1,5.4E1,4.843E3,7.4E1,2.42E2,5.3E1,3.7E1,3E0,3.44E2,1.414E3,4E0,2.4E1],"tree_param":{"num_deleted":"0","num_feature":"13","num_nodes":"31","size_leaf_vector":"1"}},{"base_weights":[1.7410983E-1,-1.0808709E0,2.3227303E0,-3.4460025E0,-3.7766612E-1,1.7813089E0,7.490024E0,-6.479481E0,-1.9826497E0,5.2717867E0,-6.4568937E-1,1.0351912E1,1.4587327E0,1.0463611E1,1.534723E-1,-8.5384846E-1,-2.8249016E-1,-3.9645474E-2,-4.2403445E-1,1.9420367E-1,1.3171012E0,2.5435705E-2,-1.0367091E-1,9.331649E-1,2.8788814E-1,-2.1291392E-1,1.000032E-1,-8.318537E-1,5.777232E-1,8.677153E-1,-2.1402774E-2],"categories":[],"categories_nodes":[],"categories_segments":[],"categories_sizes":[],"default_left":[0,0,0,0,0,0,0,0,0,0,0,0,0,0,0,0,0,0,0,0,0,0,0,0,0,0,0,0,0,0,0],"id":43,"left_children":[1,3,5,7,9,11,13,15,17,19,21,23,25,27,29,-1,-1,-1,-1,-1,-1,-1,-1,-1,-1,-1,-1,-1,-1,-1,-1],"loss_changes":[2.408205E4,9.375661E3,9.19943E3,5.7224053E3,6.5855654E3,8.229151E3,6.8049453E3,3.596371E3,6.74242E3,5.657856E3,6.84263E3,4.0163848E3,8.906057E3,6.7551895E3,9.1767993E2,0E0,0E0,0E0,0E0,0E0,0E0,0E0,0E0,0E0,0E0,0E0,0E0,0E0,0E0,0E0,0E0],"parents":[2147483647,0,0,1,1,2,2,3,3,4,4,5,5,6,6,7,7,8,8,9,9,10,10,11,11,12,12,13,13,14,14],"right_children":[2,4,6,8,10,12,14,16,18,20,22,24,26,28,30,-1,-1,-1,-1,-1,-1,-1,-1,-1,-1,-1,-1,-1,-1,-1,-1],"split_conditions":[6.45E-1,4.55E-2,9.6E-1,-4.59E1,3E0,-1.987E2,3.01E2,-2.086E2,6E-1,9.38E1,5E-1,1.2E1,-1.014E2,6E0,-2.426E2,-8.5384846E-1,-2.8249016E-1,-3.9645474E-2,-4.2403445E-1,1.9420367E-1,1.3171012E0,2.5435705E-2,-1.0367091E-1,9.331649E-1,2.8788814E-1,-2.1291392E-1,1.000032E-1,-8.318537E-1,5.777232E-1,8.677153E-1,-2.1402774E-2],"split_indices":[1,8,1,6,12,7,12,6,3,6,3,12,6,12,7,0,0,0,0,0,0,0,0,0,0,0,0,0,0,0,0],"split_type":[0,0,0,0,0,0,0,0,0,0,0,0,0,0,0,0,0,0,0,0,0,0,0,0,0,0,0,0,0,0,0],"sum_hessian":[8.929E3,5.637E3,3.292E3,1.291E3,4.346E3,2.981E3,3.11E2,4.19E2,8.72E2,1.96E2,4.15E3,1.07E2,2.874E3,2.21E2,9E1,2.9E1,3.9E2,7.38E2,1.34E2,1.85E2,1.1E1,2.295E3,1.855E3,3.7E1,7E1,2.48E2,2.626E3,8E0,2.13E2,2E0,8.8E1],"tree_param":{"num_deleted":"0","num_feature":"13","num_nodes":"31","size_leaf_vector":"1"}},{"base_weights":[3.548025E-2,-1.066445E0,2.8886256E0,-8.752933E0,-8.9962816E-1,1.2768644E1,2.513274E0,-6.2990575E0,-2.0044134E1,1.6731746E0,-1.2543036E0,2.5499508E1,5.4315734E0,2.229434E0,1.8039616E1,-3.6770362E-1,2.7042514E-1,-1.996362E0,-5.599126E-1,2.1969739E-1,-9.8672435E-2,-4.8061797E-1,-5.3869307E-2,7.2499174E-1,2.177031E0,6.383653E-2,7.810689E-1,-2.3294531E-1,1.396619E-1,2.277685E0,6.6102797E-1],"categories":[],"categories_nodes":[],"categories_segments":[],"categories_sizes":[],"default_left":[0,0,0,0,0,0,0,0,0,0,0,0,0,0,0,0,0,0,0,0,0,0,0,0,0,0,0,0,0,0,0],"id":44,"left_children":[1,3,5,7,9,11,13,15,17,19,21,23,25,27,29,-1,-1,-1,-1,-1,-1,-1,-1,-1,-1,-1,-1,-1,-1,-1,-1],"loss_changes":[2.8132027E4,8.268953E3,9.213154E3,3.669627E3,5.7682485E3,8.361557E3,1.0549789E4,1.4478623E3,3.7740908E3,7.608642E3,8.202261E3,5.9173965E3,2.477941E3,9.182361E3,5.099207E3,0E0,0E0,0E0,0E0,0E0,0E0,0E0,0E0,0E0,0E0,0E0,0E0,0E0,0E0,0E0,0E0],"parents":[2147483647,0,0,1,1,2,2,3,3,4,4,5,5,6,6,7,7,8,8,9,9,10,10,11,11,12,12,13,13,14,14],"right_children":[2,4,6,8,10,12,14,16,18,20,22,24,26,28,30,-1,-1,-1,-1,-1,-1,-1,-1,-1,-1,-1,-1,-1,-1,-1,-1],"split_conditions":[7.38E-1,1.7E-2,-1.987E2,2.9E1,-8.83E1,1.2E1,9.92E-1,8.41E2,2E0,1.17E2,-1.871E2,9E0,9.05E-1,7E0,3.62E2,-3.6770362E-1,2.7042514E-1,-1.996362E0,-5.599126E-1,2.1969739E-1,-9.8672435E-2,-4.8061797E-1,-5.3869307E-2,7.2499174E-1,2.177031E0,6.383653E-2,7.810689E-1,-2.3294531E-1,1.396619E-1,2.277685E0,6.6102797E-1],"split_indices":[1,1,7,11,7,12,1,12,9,12,6,12,1,11,11,0,0,0,0,0,0,0,0,0,0,0,0,0,0,0,0],"split_type":[0,0,0,0,0,0,0,0,0,0,0,0,0,0,0,0,0,0,0,0,0,0,0,0,0,0,0,0,0,0,0],"sum_hessian":[8.946E3,6.454E3,2.492E3,1.36E2,6.318E3,9E1,2.402E3,1.13E2,2.3E1,7.65E2,5.553E3,3.2E1,5.8E1,2.36E3,4.2E1,1.04E2,9E0,6E0,1.7E1,4.38E2,3.27E2,1.14E2,5.439E3,2.1E1,1.1E1,4.2E1,1.6E1,1.78E2,2.182E3,5E0,3.7E1],"tree_param":{"num_deleted":"0","num_feature":"13","num_nodes":"31","size_leaf_vector":"1"}},{"base_weights":[3.7286677E-3,-8.891722E-1,2.314405E0,-1.3790377E0,1.3894631E0,2.0902295E0,1.9412518E1,1.9457827E0,-1.7545481E0,1.573856E1,1.1445817E0,1.8439193E0,1.5522612E1,3.0441084E1,7.8907757E0,5.711759E-2,3.2273492E-1,-1.7379281E-1,-6.1472513E-2,-3.778837E-1,1.3536013E0,1.1948401E-1,-1.4455998E-2,2.1161209E-1,3.5393085E-2,2.3958786E0,5.5425876E-1,2.795142E0,8.6476326E-1,-5.5966544E-1,7.311913E-1],"categories":[],"categories_nodes":[],"categories_segments":[],"categories_sizes":[],"default_left":[0,0,0,0,0,0,0,0,0,0,0,0,0,0,0,0,0,0,0,0,0,0,0,0,0,0,0,0,0,0,0],"id":45,"left_children":[1,3,5,7,9,11,13,15,17,19,21,23,25,27,29,-1,-1,-1,-1,-1,-1,-1,-1,-1,-1,-1,-1,-1,-1,-1,-1],"loss_changes":[1.8372834E4,7.171428E3,9.47287E3,6.604257E3,3.977207E3,8.080592E3,3.8259824E3,1.9379641E3,4.2899414E3,5.221117E3,1.9982173E3,6.530562E3,5.7938506E3,4.3885947E3,2.3480884E3,0E0,0E0,0E0,0E0,0E0,0E0,0E0,0E0,0E0,0E0,0E0,0E0,0E0,0E0,0E0,0E0],"parents":[2147483647,0,0,1,1,2,2,3,3,4,4,5,5,6,6,7,7,8,8,9,9,10,10,11,11,12,12,13,13,14,14],"right_children":[2,4,6,8,10,12,14,16,18,20,22,24,26,28,30,-1,-1,-1,-1,-1,-1,-1,-1,-1,-1,-1,-1,-1,-1,-1,-1],"split_conditions":[7.38E-1,2.23E2,2.352E2,-1.009E2,1E0,9.92E-1,2.643E2,6.316E-1,5E-1,6E-1,6E-1,5.5E-1,3.62E2,5.5E-1,2.6E1,5.711759E-2,3.2273492E-1,-1.7379281E-1,-6.1472513E-2,-3.778837E-1,1.3536013E0,1.1948401E-1,-1.4455998E-2,2.1161209E-1,3.5393085E-2,2.3958786E0,5.5425876E-1,2.795142E0,8.6476326E-1,-5.5966544E-1,7.311913E-1],"split_indices":[1,11,6,7,9,1,6,8,4,4,2,3,11,3,11,0,0,0,0,0,0,0,0,0,0,0,0,0,0,0,0],"split_type":[0,0,0,0,0,0,0,0,0,0,0,0,0,0,0,0,0,0,0,0,0,0,0,0,0,0,0,0,0,0,0],"sum_hessian":[8.903E3,6.422E3,2.481E3,5.286E3,1.136E3,2.45E3,3.1E1,5.36E2,4.75E3,1.8E1,1.118E3,2.407E3,4.3E1,1.5E1,1.6E1,4.56E2,8E1,1.109E3,3.641E3,6E0,1.2E1,5.98E2,5.2E2,7.75E2,1.632E3,4E0,3.9E1,4E0,1.1E1,4E0,1.2E1],"tree_param":{"num_deleted":"0","num_feature":"13","num_nodes":"31","size_leaf_vector":"1"}},{"base_weights":[-1.1706833E-1,-2.0674996E0,1.2160197E0,-3.9380846E0,-1.0488434E0,4.1109505E-1,3.7182379E0,7.314683E0,-4.4241047E0,-3.0741966E0,-7.590691E-2,7.507949E0,1.8548818E-1,9.69782E0,2.9247088E0,1.5782359E0,1.4691356E-1,-3.4391865E-1,-1.5720437E-1,-1.5617573E0,-1.4228621E-1,4.8183892E-2,-1.03615366E-1,5.365466E-1,-2.4644914E-1,-8.077724E-2,7.108282E-2,-7.143451E-1,5.4859024E-1,1.9772984E-1,-3.9133593E-4],"categories":[],"categories_nodes":[],"categories_segments":[],"categories_sizes":[],"default_left":[0,0,0,0,0,0,0,0,0,0,0,0,0,0,0,0,0,0,0,0,0,0,0,0,0,0,0,0,0,0,0],"id":46,"left_children":[1,3,5,7,9,11,13,15,17,19,21,23,25,27,29,-1,-1,-1,-1,-1,-1,-1,-1,-1,-1,-1,-1,-1,-1,-1,-1],"loss_changes":[2.309397E4,6.867042E3,1.0624848E4,6.9835547E3,4.6029487E3,6.3917954E3,6.0641797E3,5.532046E3,3.8078672E3,4.7880903E3,3.279097E3,4.9832266E3,8.620613E3,4.7401807E3,3.4279385E3,0E0,0E0,0E0,0E0,0E0,0E0,0E0,0E0,0E0,0E0,0E0,0E0,0E0,0E0,0E0,0E0],"parents":[2147483647,0,0,1,1,2,2,3,3,4,4,5,5,6,6,7,7,8,8,9,9,10,10,11,11,12,12,13,13,14,14],"right_children":[2,4,6,8,10,12,14,16,18,20,22,24,26,28,30,-1,-1,-1,-1,-1,-1,-1,-1,-1,-1,-1,-1,-1,-1,-1,-1],"split_conditions":[3.96E-1,6.111E-1,2.432E2,5E0,-5.445E2,5E-2,5E-1,-3.811E2,-3.317E2,1.6E1,6.01E1,5E0,4.375E-1,5E-2,3.01E2,1.5782359E0,1.4691356E-1,-3.4391865E-1,-1.5720437E-1,-1.5617573E0,-1.4228621E-1,4.8183892E-2,-1.03615366E-1,5.365466E-1,-2.4644914E-1,-8.077724E-2,7.108282E-2,-7.143451E-1,5.4859024E-1,1.9772984E-1,-3.9133593E-4],"split_indices":[1,5,0,12,0,5,3,0,0,12,7,12,5,3,12,0,0,0,0,0,0,0,0,0,0,0,0,0,0,0,0],"split_type":[0,0,0,0,0,0,0,0,0,0,0,0,0,0,0,0,0,0,0,0,0,0,0,0,0,0,0,0,0,0,0],"sum_hessian":[8.88E3,3.605E3,5.275E3,1.27E3,2.335E3,3.992E3,1.283E3,5.2E1,1.218E3,7.57E2,1.578E3,1.22E2,3.87E3,1.49E2,1.134E3,7E0,4.5E1,4.16E2,8.02E2,5E0,7.52E2,1.038E3,5.4E2,9.7E1,2.5E1,1.575E3,2.295E3,7E0,1.42E2,8.39E2,2.95E2],"tree_param":{"num_deleted":"0","num_feature":"13","num_nodes":"31","size_leaf_vector":"1"}},{"base_weights":[9.8940164E-2,-8.023961E-1,2.1570761E0,-1.7141213E0,6.5723E-1,4.262092E0,1.3340921E0,-1.9093454E0,6.9395394E0,4.4386344E0,-9.973862E-1,3.3858042E0,1.8265877E1,8.2398206E-1,7.1294065E0,-1.1885531E-1,8.213668E-2,5.5799985E-1,-1.8179785E-1,1.7930183E-1,9.946478E-1,-5.53164E-2,1.0893587E0,1.526526E-1,1.6392736E0,2.8374527E0,6.0183775E-1,2.641072E-2,3.734987E-1,7.169957E-1,2.6037011E-2],"categories":[],"categories_nodes":[],"categories_segments":[],"categories_sizes":[],"default_left":[0,0,0,0,0,0,0,0,0,0,0,0,0,0,0,0,0,0,0,0,0,0,0,0,0,0,0,0,0,0,0],"id":47,"left_children":[1,3,5,7,9,11,13,15,17,19,21,23,25,27,29,-1,-1,-1,-1,-1,-1,-1,-1,-1,-1,-1,-1,-1,-1,-1,-1],"loss_changes":[1.6652863E4,8.309173E3,4.7306807E3,6.505624E3,1.5026939E4,9.36255E3,5.8090654E3,6.2495693E3,3.8344185E3,9.56055E3,4.171843E3,6.9826484E3,1.0104164E4,3.5519507E3,7.569175E3,0E0,0E0,0E0,0E0,0E0,0E0,0E0,0E0,0E0,0E0,0E0,0E0,0E0,0E0,0E0,0E0],"parents":[2147483647,0,0,1,1,2,2,3,3,4,4,5,5,6,6,7,7,8,8,9,9,10,10,11,11,12,12,13,13,14,14],"right_children":[2,4,6,8,10,12,14,16,18,20,22,24,26,28,30,-1,-1,-1,-1,-1,-1,-1,-1,-1,-1,-1,-1,-1,-1,-1,-1],"split_conditions":[5.25E-1,5.5E0,4.5E-1,8.571E-1,5E1,9.03E-1,1E0,2.38E2,2.66E2,9.25E-1,6.047E2,2.143E2,3.244E2,6.398E2,1.15E2,-1.1885531E-1,8.213668E-2,5.5799985E-1,-1.8179785E-1,1.7930183E-1,9.946478E-1,-5.53164E-2,1.0893587E0,1.526526E-1,1.6392736E0,2.8374527E0,6.0183775E-1,2.641072E-2,3.734987E-1,7.169957E-1,2.6037011E-2],"split_indices":[8,6,3,3,12,1,10,11,12,1,0,6,0,0,12,0,0,0,0,0,0,0,0,0,0,0,0,0,0,0,0],"split_type":[0,0,0,0,0,0,0,0,0,0,0,0,0,0,0,0,0,0,0,0,0,0,0,0,0,0,0,0,0,0,0],"sum_hessian":[8.975E3,6.242E3,2.733E3,3.842E3,2.4E3,7.67E2,1.966E3,3.758E3,8.4E1,7.3E2,1.67E3,7.23E2,4.4E1,1.808E3,1.58E2,3.321E3,4.37E2,6E1,2.4E1,6.93E2,3.7E1,1.663E3,7E0,7.16E2,7E0,5E0,3.9E1,1.732E3,7.6E1,7.5E1,8.3E1],"tree_param":{"num_deleted":"0","num_feature":"13","num_nodes":"31","size_leaf_vector":"1"}},{"base_weights":[5.3435937E-2,-4.81527E-1,3.0920656E0,-2.3412309E0,1.7742552E-1,-9.5801994E-2,4.7294803E0,-8.770011E0,-2.1084924E0,-1.9077061E-1,2.2996752E0,6.290829E0,-1.4374192E0,6.053879E0,1.237101E-1,-7.3695314E-1,8.343847E-2,-2.0871225E-1,-6.2182803E-2,4.407427E-2,-8.281615E-2,6.907949E-1,7.9447374E-2,9.279806E-2,7.3816586E-1,3.4614825E-1,-1.3853289E-1,4.1029453E-1,9.7565815E-2,5.742733E-1,-7.547185E-2],"categories":[],"categories_nodes":[],"categories_segments":[],"categories_sizes":[],"default_left":[0,0,0,0,0,0,0,0,0,0,0,0,0,0,0,0,0,0,0,0,0,0,0,0,0,0,0,0,0,0,0],"id":48,"left_children":[1,3,5,7,9,11,13,15,17,19,21,23,25,27,29,-1,-1,-1,-1,-1,-1,-1,-1,-1,-1,-1,-1,-1,-1,-1,-1],"loss_changes":[1.4496556E4,9.293053E3,6.968966E3,2.9500176E3,4.3763013E3,3.8991025E3,5.379342E3,4.32396E3,3.4178145E3,7.5019785E3,6.755144E3,2.9409749E3,4.210223E3,6.0316914E3,3.691309E3,0E0,0E0,0E0,0E0,0E0,0E0,0E0,0E0,0E0,0E0,0E0,0E0,0E0,0E0,0E0,0E0],"parents":[2147483647,0,0,1,1,2,2,3,3,4,4,5,5,6,6,7,7,8,8,9,9,10,10,11,11,12,12,13,13,14,14],"right_children":[2,4,6,8,10,12,14,16,18,20,22,24,26,28,30,-1,-1,-1,-1,-1,-1,-1,-1,-1,-1,-1,-1,-1,-1,-1,-1],"split_conditions":[8.462E-1,-3.317E2,2E0,1.1E-2,4.2E2,3.125E-1,7.857E-1,7.61E2,7E-1,9E1,1E0,5.54E-1,7E0,1.33E2,7.5E-1,-7.3695314E-1,8.343847E-2,-2.0871225E-1,-6.2182803E-2,4.407427E-2,-8.281615E-2,6.907949E-1,7.9447374E-2,9.279806E-2,7.3816586E-1,3.4614825E-1,-1.3853289E-1,4.1029453E-1,9.7565815E-2,5.742733E-1,-7.547185E-2],"split_indices":[8,0,9,1,11,3,3,12,4,12,9,1,12,12,2,0,0,0,0,0,0,0,0,0,0,0,0,0,0,0,0],"split_type":[0,0,0,0,0,0,0,0,0,0,0,0,0,0,0,0,0,0,0,0,0,0,0,0,0,0,0,0,0,0,0],"sum_hessian":[8.916E3,7.582E3,1.334E3,1.983E3,5.599E3,4.53E2,8.81E2,6.8E1,1.915E3,4.772E3,8.27E2,7.8E1,3.75E2,6.84E2,1.97E2,4.3E1,2.5E1,5.64E2,1.351E3,2.756E3,2.016E3,4.7E1,7.8E2,5.2E1,2.6E1,5.1E1,3.24E2,4.48E2,2.36E2,2.4E1,1.73E2],"tree_param":{"num_deleted":"0","num_feature":"13","num_nodes":"31","size_leaf_vector":"1"}},{"base_weights":[1.1957114E-1,-2.0712476E0,8.191644E-1,-1.494764E0,-5.5994167E0,-1.6092814E0,1.9611635E0,-5.3711967E0,-9.627666E-1,-6.7572947E0,5.5735416E0,3.9715142E0,-2.198462E0,3.7472887E0,4.7821933E-1,2.732959E-1,-3.380055E-1,-4.2196265E-3,-1.5830301E-1,-5.8971167E-1,-1.9950151E-1,5.966819E-1,5.1191833E-2,7.684479E-2,5.2544224E-1,-4.20711E-1,-8.390602E-2,4.319884E-1,1.4133869E-1,-3.279167E-2,1.3041191E-1],"categories":[],"categories_nodes":[],"categories_segments":[],"categories_sizes":[],"default_left":[0,0,0,0,0,0,0,0,0,0,0,0,0,0,0,0,0,0,0,0,0,0,0,0,0,0,0,0,0,0,0],"id":49,"left_children":[1,3,5,7,9,11,13,15,17,19,21,23,25,27,29,-1,-1,-1,-1,-1,-1,-1,-1,-1,-1,-1,-1,-1,-1,-1,-1],"loss_changes":[1.3677818E4,4.384923E3,1.8761643E4,3.8264932E3,3.9575479E3,7.1241704E3,1.2184984E4,3.4085576E3,3.1639749E3,3.78604E3,8.2694214E2,3.2784417E3,6.318676E3,9.374592E3,6.0768276E3,0E0,0E0,0E0,0E0,0E0,0E0,0E0,0E0,0E0,0E0,0E0,0E0,0E0,0E0,0E0,0E0],"parents":[2147483647,0,0,1,1,2,2,3,3,4,4,5,5,6,6,7,7,8,8,9,9,10,10,11,11,12,12,13,13,14,14],"right_children":[2,4,6,8,10,12,14,16,18,20,22,24,26,28,30,-1,-1,-1,-1,-1,-1,-1,-1,-1,-1,-1,-1,-1,-1,-1,-1],"split_conditions":[2.778E-1,9.09E1,1.5E1,-1.033E2,2.97E2,3E0,9.5E1,-1.323E2,6E-1,1.86E-1,-4.13E1,6E-1,-8.17E1,-1.071E2,4.9E2,2.732959E-1,-3.380055E-1,-4.2196265E-3,-1.5830301E-1,-5.8971167E-1,-1.9950151E-1,5.966819E-1,5.1191833E-2,7.684479E-2,5.2544224E-1,-4.20711E-1,-8.390602E-2,4.319884E-1,1.4133869E-1,-3.279167E-2,1.3041191E-1],"split_indices":[8,7,11,6,11,12,12,7,2,1,6,2,